const float weights_0[6][400] = {
  { -2.08320946e-01f, 2.04242766e-01f, -3.52685936e-02f, -6.25476893e-03f, 2.67877489e-01f, -1.22455940e-01f, -1.49539515e-01f, -8.04666057e-02f, -2.37891704e-01f, 2.20838189e-01f, -3.17017466e-01f, -2.46762425e-01f, -1.36249280e-02f, -6.94038300e-03f, -5.24004936e-01f, -5.40122151e-01f, 1.44780025e-01f, -1.43410683e-01f, 8.19064826e-02f, 3.69412869e-01f, 8.57162550e-02f, 2.15216085e-01f, -2.96391308e-01f, -2.53303111e-01f, 1.28310174e-02f, -1.19792938e-01f, 1.89602107e-01f, 1.76026881e-01f, -9.35773104e-02f, -1.43142762e-02f, 1.43337592e-01f, 5.22539973e-01f, 5.45092463e-01f, -1.98968992e-01f, -2.04465449e-01f, -2.63378948e-01f, -7.64451846e-02f, 1.71377912e-01f, 1.10637315e-01f, -1.24819174e-01f, -2.86947608e-01f, -3.69341336e-02f, 2.11501330e-01f, 7.72400722e-02f, -2.46615708e-01f, 3.72661054e-01f, 4.08096582e-01f, 3.77971798e-01f, -2.77914689e-03f, -1.34426113e-02f, -1.68911695e-01f, 4.60639410e-02f, -2.21902683e-01f, 2.52323002e-02f, -6.40814975e-02f, 2.68462915e-02f, 1.29469335e-01f, -6.44503627e-04f, -2.48927638e-01f, -2.16946036e-01f, 1.45278290e-01f, 1.16034644e-02f, 3.85886908e-01f, 4.36762422e-01f, 2.22938940e-01f, 1.75874382e-01f, 3.71982306e-01f, 1.26994058e-01f, 1.21619236e-02f, -1.30829811e-02f, -3.02917451e-01f, 3.45380642e-02f, -5.75296521e-01f, 2.78130919e-01f, -2.36357778e-01f, -3.16465169e-01f, -2.26278245e-01f, -1.67177022e-01f, 1.02198221e-01f, -1.70110926e-01f, -8.68575871e-02f, -1.24099806e-01f, 4.34973419e-01f, 2.69272000e-01f, 5.36448598e-01f, -3.60510170e-01f, -6.80057891e-03f, -6.53561875e-02f, 1.46683291e-01f, 3.69272307e-02f, -3.06163788e-01f, 2.59721577e-01f, 3.17919962e-02f, -1.99680522e-01f, 1.13350511e-01f, -9.00192857e-02f, -6.51338920e-02f, -1.38288289e-01f, -1.07023314e-01f, -1.71669554e-02f, -5.77373756e-03f, 3.05980444e-01f, -3.76060605e-02f, 6.89468235e-02f, 5.28528206e-02f, 4.65827584e-01f, -4.38287742e-02f, -1.51403680e-01f, 1.87334940e-01f, 1.92866176e-01f, -1.44587485e-02f, -2.91376203e-01f, 6.00603744e-02f, 4.89550531e-02f, -1.22183204e-01f, -5.87327421e-01f, 1.44261807e-01f, 8.78019631e-02f, 4.90955031e-03f, -1.28686607e-01f, 3.14473957e-01f, 1.36632437e-03f, -1.39266074e-01f, -2.15057880e-02f, 2.69325525e-02f, -2.69219190e-01f, 5.04003465e-02f, 4.43013497e-02f, -5.44492155e-02f, 1.79988682e-01f, -3.90520245e-02f, 3.10108274e-01f, 1.66071266e-01f, -2.28783563e-01f, -2.55173445e-01f, -1.37175292e-01f, 5.02120592e-02f, 1.73406810e-01f, -1.84963048e-01f, -5.14387824e-02f, -1.73241377e-01f, -1.90956458e-01f, -3.23828124e-02f, 1.66908726e-01f, -6.21370040e-02f, 1.39783189e-01f, 8.81177261e-02f, 2.28030905e-01f, -1.66094109e-01f, 1.25462234e-01f, 1.83819935e-01f, -1.04490221e-01f, -7.71525800e-02f, -2.91237403e-02f, 7.34463483e-02f, -1.80783663e-02f, 2.95105070e-01f, -2.63190083e-02f, 9.91365761e-02f, -2.36107275e-01f, 2.65269160e-01f, -8.99788141e-02f, -5.63051514e-02f, -2.67591588e-02f, 3.94324720e-01f, -1.29454853e-02f, 4.09776002e-01f, 8.51406008e-02f, -6.90923557e-02f, 1.27248198e-01f, -2.99700022e-01f, 4.68273275e-02f, -2.52292782e-01f, 1.89948395e-01f, -5.77618256e-02f, 9.10054445e-02f, -5.53056076e-02f, 5.31671308e-02f, 1.08488640e-02f, 8.92027169e-02f, -1.66858733e-01f, -7.49555230e-02f, 6.17650971e-02f, 4.52416182e-01f, -5.01422025e-02f, -1.03196926e-01f, 1.38568282e-01f, -5.44225890e-03f, 4.02686521e-02f, -1.27614528e-01f, -1.44997731e-01f, 6.02526404e-02f, -4.67916727e-02f, -1.65619086e-02f, 1.40515044e-01f, -1.26380529e-02f, 2.07062941e-02f, -1.40335903e-01f, 7.01437742e-02f, -1.58481132e-02f, 1.04441650e-01f, 3.76700535e-02f, -4.83686524e-03f, 4.84307706e-02f, -1.57478675e-01f, -3.84083651e-02f, -1.74016178e-01f, -2.27350205e-01f, -1.20184310e-01f, 1.52009621e-01f, -1.53420463e-01f, -6.55458942e-02f, 1.17010750e-01f, -1.84455633e-01f, 3.21173996e-01f, 2.86219001e-01f, 4.41855550e-01f, -4.58203703e-02f, 6.03579991e-02f, -7.72047490e-02f, -1.18893661e-01f, 3.11230391e-01f, 2.57363677e-01f, -3.20439301e-02f, -2.64045075e-02f, -2.49912769e-01f, -1.42557221e-02f, -6.23862408e-02f, -3.10632408e-01f, -1.30633086e-01f, 9.83766746e-03f, 6.41569272e-02f, 5.11414945e-01f, 9.20225531e-02f, -3.02033544e-01f, -6.31218612e-01f, 1.01832017e-01f, 5.11187576e-02f, 2.33047470e-01f, 2.05198765e-01f, -7.98426718e-02f, -3.42001915e-01f, -8.88081640e-02f, 1.31669626e-01f, -1.24943480e-01f, -4.00309891e-01f, -8.80999863e-02f, 1.39163300e-01f, -3.50595891e-01f, -3.20397437e-01f, 7.08146542e-02f, -3.03272228e-03f, 2.94047832e-01f, 6.55054301e-02f, 4.12364937e-02f, -1.01714954e-02f, -1.03838094e-01f, 3.06625724e-01f, 3.35142821e-01f, 9.03675184e-02f, 2.60275334e-01f, 1.04931332e-02f, -1.47196561e-01f, -2.34228075e-01f, -8.71628374e-02f, -1.84009731e-01f, -2.69351929e-01f, 7.63596296e-02f, 2.51280606e-01f, 2.41482228e-01f, 2.21329942e-01f, -1.46479800e-01f, -1.62333563e-01f, -1.32768422e-01f, -2.72983283e-01f, 1.48401573e-01f, -3.06204319e-01f, -1.24631889e-01f, -2.47949496e-01f, -1.53255388e-01f, -1.41178900e-02f, 1.81644887e-01f, -1.19950496e-01f, -1.23390771e-01f, -1.00361101e-01f, 3.25353593e-01f, 1.40740320e-01f, 4.96295206e-02f, -2.83773839e-02f, 1.48986936e-01f, -2.38468856e-01f, -1.75417900e-01f, -1.23970225e-01f, 1.97576463e-01f, 1.70282707e-01f, -9.47739407e-02f, 1.11947529e-01f, 3.09958402e-02f, 9.87666622e-02f, -1.05296090e-01f, 2.20157757e-01f, 1.28482208e-01f, -1.14940004e-02f, -4.14813161e-02f, 1.16599470e-01f, 2.62580663e-01f, -1.33643359e-01f, -2.26997975e-02f, 2.37901881e-03f, 1.02161959e-01f, -2.82284766e-01f, 1.10121727e-01f, 7.26945251e-02f, 2.12029144e-01f, -3.37170064e-01f, 3.78321297e-02f, 2.77860880e-01f, 1.69980317e-01f, 2.75106877e-02f, -2.59259015e-01f, -2.00808682e-02f, -2.00594708e-01f, -6.30220845e-02f, -1.11510918e-01f, 4.20862250e-02f, -3.37237604e-02f, -2.69932821e-02f, 2.03125179e-01f, -1.44537702e-01f, 5.45199588e-02f, -1.51542842e-01f, 3.27521563e-01f, 2.07121566e-01f, -4.61029410e-01f, -5.87075427e-02f, -3.18646133e-01f, -1.43728241e-01f, 7.72207528e-02f, 5.04684597e-02f, -3.69321257e-02f, -8.48241746e-02f, 6.58852160e-02f, -1.60941377e-01f, 1.69212729e-01f, -2.23448679e-01f, -1.45715997e-01f, 5.67299008e-01f, 3.10950845e-01f, -1.84928253e-02f, -1.40832784e-02f, 1.21418916e-01f, 1.75163299e-01f, 5.20816930e-02f, -4.41823304e-02f, 1.14633858e-01f, 5.48623838e-02f, 2.20889300e-01f, -3.94292176e-03f, 1.49742126e-01f, -2.07549587e-01f, 8.66545513e-02f, -2.79798925e-01f, 4.25256282e-01f, 6.61640987e-02f, 1.47489458e-01f, 7.02490360e-02f, 2.26868317e-01f, 2.90704697e-01f, 7.19615119e-03f, 5.79017736e-02f, -3.08741271e-01f, -5.55062890e-02f, -2.19199792e-01f, -1.85149848e-01f, -5.37782200e-02f, 1.97083130e-01f, -5.78836426e-02f, 5.02336137e-02f, -1.44903004e-01f, 1.82742611e-01f, -2.49616146e-01f, -4.42634942e-03f, 1.66852772e-01f, 3.31175774e-01f, 3.36627483e-01f, -5.22012770e-01f, 5.85874282e-02f, 3.65519412e-02f, 6.31577149e-03f, -4.43767384e-02f, -4.71596643e-02f, 9.23958048e-03f, 3.10637541e-02f, 2.26046611e-02f, -3.70320119e-02f, -2.69095778e-01f, -3.16713065e-01f, -1.83305025e-01f, 1.43955313e-02f, -5.23005538e-02f },
  { 3.78488839e-01f, -1.82416558e-01f, 8.05990845e-02f, 2.25962609e-01f, 9.18019116e-02f, -7.28372708e-02f, -2.39879504e-01f, 2.49870464e-01f, 2.65049785e-01f, 2.26699233e-01f, -3.84007059e-02f, -4.63053763e-01f, 2.29212284e-01f, 1.45799056e-01f, 9.72164050e-02f, -3.34723681e-01f, 2.85906225e-01f, -2.54476994e-01f, 1.04505859e-01f, -4.65081364e-01f, 7.78997838e-02f, -4.72024381e-01f, 3.00742298e-01f, 3.90283540e-02f, -1.89735547e-01f, 4.06633765e-01f, 1.89828351e-01f, 4.78508234e-01f, -2.34227538e-01f, 2.76963443e-01f, -6.99135140e-02f, 6.18762523e-03f, -3.11825126e-01f, 1.22120172e-01f, 1.15558699e-01f, -2.36663580e-01f, -6.36438191e-01f, -2.38100410e-01f, -1.24077901e-01f, 1.07878216e-01f, 2.25861417e-03f, 2.25895762e-01f, -4.06586289e-01f, -2.82217804e-02f, -1.49494619e-03f, 3.26432943e-01f, 4.15609121e-01f, 7.67297074e-02f, -2.29796097e-01f, -1.45667344e-01f, -3.58538772e-03f, -2.46499985e-01f, 2.43736267e-01f, 1.79941490e-01f, 2.08589762e-01f, 2.79428124e-01f, -4.94695716e-02f, 1.58027634e-01f, -5.48751280e-02f, -2.50067711e-01f, 5.25491908e-02f, -2.02034160e-01f, 2.44187057e-01f, -6.96618259e-02f, -1.57456338e-01f, 1.39168710e-01f, 6.13936875e-03f, 1.13759860e-01f, -4.55103666e-01f, -5.95374126e-03f, -5.78687154e-02f, 1.19996145e-01f, -2.56117254e-01f, 1.13157578e-01f, 1.70567706e-01f, 6.47123232e-02f, -3.26513983e-02f, -2.20270589e-01f, 2.70181209e-01f, -1.24319956e-01f, 3.26303869e-01f, 3.64392340e-01f, -8.16352367e-02f, -2.71634042e-01f, 1.82048440e-01f, -6.16647564e-02f, -2.92078257e-01f, 2.59094715e-01f, -6.21001199e-02f, 1.67232696e-02f, -6.65272355e-01f, 7.36521661e-01f, -1.36189029e-01f, 3.80741984e-01f, 4.31252927e-01f, -1.32915586e-01f, 3.79023224e-01f, -4.27282229e-02f, 4.35430557e-01f, 1.47147223e-01f, 1.59285575e-01f, -9.16831121e-02f, 1.59514591e-01f, -6.67494163e-03f, 2.43775040e-01f, -2.84412295e-01f, 4.05587442e-02f, 2.19135985e-01f, 4.26348388e-01f, 2.44995251e-01f, -6.90689757e-02f, -3.44995707e-01f, 1.57671690e-01f, -1.01802044e-01f, 1.55835643e-01f, -1.60626560e-01f, 4.48643595e-01f, -5.66935241e-01f, 1.10681564e-01f, -3.57630014e-01f, 3.48535985e-01f, -3.78700793e-01f, 2.37797409e-01f, 1.10476799e-01f, -4.04386759e-01f, 4.02763844e-01f, -1.48200810e-01f, 4.94966358e-01f, -1.22629069e-01f, 3.38579506e-01f, -2.44862005e-01f, 1.89090163e-01f, -2.75073141e-01f, -1.08760938e-01f, 1.66354757e-02f, -1.75244674e-01f, 2.63457950e-02f, 6.31511658e-02f, -3.66871506e-02f, 3.40227336e-01f, -5.90062626e-02f, 3.02644819e-01f, 1.08269833e-01f, -1.38736233e-01f, -4.93810177e-02f, 1.41793132e-01f, 3.10994536e-01f, -7.55038708e-02f, 1.46715101e-02f, -1.28591314e-01f, -7.13397637e-02f, -4.68059182e-02f, 3.16951782e-01f, 5.76535285e-01f, 3.77550162e-02f, 3.14320214e-02f, 2.08902255e-01f, 1.56584442e-01f, -9.96279120e-02f, 3.96205820e-02f, -1.73934534e-01f, 2.43135244e-02f, 7.94148371e-02f, -7.63481781e-02f, 3.74951735e-02f, 1.34622186e-01f, 1.60032790e-02f, 1.70459494e-01f, -2.28726983e-01f, -4.21695225e-02f, 1.29752859e-01f, -5.82619980e-02f, 4.91346538e-01f, 6.48302063e-02f, 5.55385910e-02f, -4.95099649e-02f, -5.04511632e-02f, 3.54337096e-02f, -2.03190655e-01f, -2.84582395e-02f, 7.70870894e-02f, -1.16562046e-01f, -1.10638335e-01f, 3.72411311e-02f, 1.19952366e-01f, -1.52037829e-01f, -1.24372125e-01f, 5.82201958e-01f, 1.75887659e-01f, -4.97882068e-02f, -1.77899376e-01f, 3.72400522e-01f, -2.32395977e-02f, 5.87464511e-01f, 2.10827813e-01f, -3.94698903e-02f, 1.86151289e-03f, -4.05944914e-01f, 1.75056309e-01f, -7.47727901e-02f, -4.29826736e-01f, 1.91230819e-01f, -3.12757827e-02f, 1.05448343e-01f, 3.31725687e-01f, 4.84305918e-02f, 3.84594500e-01f, 4.15576160e-01f, -5.84394410e-02f, 1.38334468e-01f, -1.60481378e-01f, 7.11804152e-01f, 7.43673667e-02f, -6.84917122e-02f, 3.73942465e-01f, 2.27405027e-01f, 8.01534858e-04f, -4.05304253e-01f, -1.66019220e-02f, 1.53292548e-02f, 3.26982029e-02f, -6.31889760e-01f, -2.87094206e-01f, -1.45852730e-01f, 1.05343096e-01f, 2.72676170e-01f, 4.80724387e-02f, 2.35315934e-01f, 1.00012226e-02f, -3.51013631e-01f, 3.81093353e-01f, -1.46236777e-01f, -3.60181540e-01f, 3.38273891e-03f, -9.66534484e-03f, 4.98834431e-01f, -1.10104218e-01f, -6.15650058e-01f, 6.24750508e-03f, -4.80900295e-02f, -6.89594805e-01f, -1.72996566e-01f, 8.16598088e-02f, -4.46142793e-01f, -2.67729163e-01f, -2.30414629e-01f, 3.14059108e-02f, -3.71371031e-01f, 7.43683949e-02f, 1.19197935e-01f, -1.39227942e-01f, -1.44402117e-01f, 1.71226397e-01f, -3.64867687e-01f, 3.30324620e-01f, 7.60398567e-01f, -3.25672448e-01f, -6.40468061e-01f, 2.79256165e-01f, 9.19346884e-02f, 1.55299366e-01f, -5.22221744e-01f, -3.23499978e-01f, -3.11851978e-01f, 3.61812800e-01f, 5.42246759e-01f, -4.87269968e-01f, 8.32049921e-02f, -7.47558355e-01f, -2.05474347e-01f, 2.31887683e-01f, -3.75131398e-01f, -7.04453588e-01f, -5.26346564e-01f, -3.25086787e-02f, -3.75637040e-02f, 3.16124000e-02f, 6.72960818e-01f, -1.39468182e-02f, -2.25605443e-01f, 5.97254574e-01f, -2.75899209e-02f, 2.56047755e-01f, 1.18700221e-01f, 1.11954389e-02f, -1.88689783e-01f, 4.39987451e-01f, -2.50989556e-01f, -3.91246170e-01f, 3.81260157e-01f, -5.71161330e-01f, -3.95178467e-01f, -1.92218237e-02f, -3.29124451e-01f, -1.17292717e-01f, -5.54758251e-01f, 1.49395153e-01f, -1.76948071e-01f, 7.59608895e-02f, -5.67217804e-02f, 1.06509298e-03f, 9.17916968e-02f, 1.15075424e-01f, 6.94707781e-02f, 2.44249910e-01f, -1.00164019e-01f, 1.00914180e-01f, 2.60215431e-01f, 4.68848616e-01f, 1.13514692e-01f, -3.94298762e-01f, 8.47412944e-02f, 5.53352416e-01f, -4.27763350e-03f, -4.13283221e-02f, 1.23166479e-01f, 3.85512799e-01f, -5.31669319e-01f, 4.14827764e-01f, -2.61507750e-01f, 2.58256435e-01f, -3.13439876e-01f, 2.53777772e-01f, -5.19628637e-02f, -3.39053512e-01f, 2.82409359e-02f, -6.13046885e-02f, 3.71378720e-01f, -8.58385563e-02f, 1.69205382e-01f, -2.37916410e-02f, -1.53412387e-01f, -3.42220992e-01f, 3.41209583e-02f, 1.45114735e-01f, -3.26299146e-02f, -3.44080955e-01f, 2.42140800e-01f, 3.08841188e-03f, 4.58567113e-01f, -1.07054003e-01f, -1.36110531e-02f, -4.83739078e-01f, -3.29314202e-01f, -1.60361994e-02f, 3.51228893e-01f, 3.21170688e-01f, -6.00228906e-01f, -1.42753169e-01f, -1.46398306e-01f, 4.85762626e-01f, -8.82159397e-02f, 9.77006480e-02f, 3.12806144e-02f, 2.55951434e-01f, 1.21088862e-01f, -2.44796872e-01f, 9.41139236e-02f, -8.82386640e-02f, 5.41888848e-02f, -9.51289758e-02f, -7.19280913e-02f, 2.72419453e-01f, 2.28477389e-01f, 7.48438165e-02f, -2.48109967e-01f, -1.78031474e-01f, -8.76740441e-02f, -1.49595171e-01f, 2.59810090e-01f, 8.25183243e-02f, 2.36764476e-02f, 2.39257053e-01f, 1.02048941e-01f, -5.25124222e-02f, 1.57677144e-01f, -3.43688726e-02f, 5.90304695e-02f, -3.95091400e-02f, 7.38093555e-02f, 5.37848473e-02f, 4.26984020e-03f, -1.38485795e-02f, -1.56044707e-01f, 3.91713798e-01f, 3.64603549e-02f, -8.40393081e-02f, 4.11258519e-01f, 1.33855194e-01f, -1.53893605e-01f, -1.29352674e-01f, 1.06542952e-01f, -3.36762160e-01f, 5.22513568e-01f, 1.67588085e-01f, -2.11387932e-01f, 1.27487600e-01f, 1.11422902e-02f, 4.19654518e-01f, -1.14760958e-01f },
  { -2.20836714e-01f, -8.98562744e-02f, -4.96569991e-01f, 3.93689036e-01f, 2.62021236e-02f, 2.74565835e-02f, -1.82004180e-03f, 2.81256229e-01f, 1.72202930e-01f, 2.46227141e-02f, 7.00598508e-02f, -3.13922286e-01f, 3.57514709e-01f, -1.02341250e-01f, 1.31585225e-01f, -2.13795096e-01f, -3.70595783e-01f, -2.07138786e-04f, 6.28330112e-02f, 2.93319464e-01f, -2.54638821e-01f, 6.54476732e-02f, 3.22922677e-01f, -3.59632045e-01f, 1.84078872e-01f, -2.06176147e-01f, -1.23347536e-01f, 4.89243157e-02f, 1.11571727e-02f, -4.65040058e-02f, 1.92744702e-01f, 4.78148431e-01f, 2.96683758e-01f, 5.94215393e-01f, -3.60669494e-02f, 6.33438453e-02f, -1.82439297e-01f, 1.08145796e-01f, 7.41229892e-01f, -1.90257058e-01f, 2.83757091e-01f, 2.10835069e-01f, -2.59748131e-01f, -6.23660386e-02f, -1.46308884e-01f, -2.26352140e-01f, 2.38059744e-01f, -3.93035233e-01f, 1.54719099e-01f, 5.43689549e-01f, -7.70418197e-02f, -1.18570477e-01f, 8.52056146e-02f, -5.23920357e-01f, 8.48122016e-02f, 9.57113728e-02f, 1.08054832e-01f, -1.40505403e-01f, 1.10073984e-01f, -1.75861478e-01f, 2.44569153e-01f, -6.57805577e-02f, -3.94554049e-01f, -3.36591750e-01f, 2.63768911e-01f, -3.30988280e-02f, 1.65745974e-01f, -4.42241222e-01f, -2.54287302e-01f, 6.64358586e-02f, 1.10578746e-01f, -1.19729619e-02f, -2.99799830e-01f, -4.71296459e-01f, 4.17415917e-01f, 3.75310838e-01f, -3.05193305e-01f, 7.17585459e-02f, -2.62204587e-01f, 2.28719926e-03f, 3.18799168e-02f, 2.09232405e-01f, 2.09506676e-01f, 4.00408030e-01f, 4.86769348e-01f, -9.50523540e-02f, -8.58457685e-02f, -1.85008254e-02f, -2.03511238e-01f, -1.31099120e-01f, -3.43319923e-01f, 6.56834543e-02f, 1.26850009e-01f, 6.16102293e-02f, 7.83617944e-02f, -2.79976487e-01f, 3.58857810e-02f, -1.09124020e-01f, -1.32894441e-01f, -3.27659577e-01f, -8.39250535e-02f, 2.23593503e-01f, -4.37112361e-01f, 3.11913848e-01f, 2.38696262e-02f, -1.84497088e-02f, 3.41059476e-01f, 7.02882931e-02f, -1.20343857e-01f, -1.03121050e-01f, 3.48530978e-01f, -2.02865247e-02f, 1.27450988e-01f, 2.87437495e-02f, 8.13678056e-02f, -1.68357000e-01f, -1.76447853e-01f, 6.20866492e-02f, -1.07223272e-01f, 1.81966901e-01f, -1.15543045e-01f, 3.06858897e-01f, 5.74977808e-02f, -9.04377848e-02f, 6.36277050e-02f, -3.29599887e-01f, -1.04545644e-02f, 6.95859119e-02f, 8.82447362e-02f, -1.77261814e-01f, -1.10783726e-01f, 1.53046295e-01f, 1.48156852e-01f, 5.55584669e-01f, -3.57303143e-01f, 1.32211179e-01f, 1.98352188e-01f, 1.83575287e-01f, 3.81797731e-01f, -1.62231669e-01f, 3.20795894e-01f, 1.65804416e-01f, 4.75945603e-03f, 3.59417684e-02f, -9.70914308e-03f, -1.02523260e-01f, -6.56815171e-02f, -3.28577757e-01f, 1.51814416e-01f, 2.27056116e-01f, -3.62406790e-01f, -1.76438227e-01f, -1.93557844e-01f, -4.90275979e-01f, -2.93694763e-03f, -1.99369371e-01f, 1.60800174e-01f, -1.35888197e-02f, -5.23894618e-04f, -3.53161514e-01f, 4.83756848e-02f, -6.47264868e-02f, -2.39272684e-01f, -2.78270870e-01f, 2.33408585e-01f, -2.86291867e-01f, -3.87044461e-03f, -2.97884345e-01f, 2.61787385e-01f, 1.56558782e-01f, 1.14808530e-01f, -1.55259162e-01f, -8.86396021e-02f, -4.89838004e-01f, 1.12122878e-01f, 2.12446421e-01f, -2.41005808e-01f, 8.44874978e-02f, -2.39506140e-01f, 5.21598198e-02f, 1.15397468e-01f, 9.29753184e-02f, 8.84274859e-03f, 1.29404992e-01f, -6.64241835e-02f, 2.47575581e-01f, -5.41273095e-02f, -3.73628773e-02f, -1.53347000e-01f, -2.41431028e-01f, -1.38802439e-01f, -1.83867559e-01f, -6.67745061e-03f, 1.11291781e-01f, -5.78614064e-02f, -4.67457980e-01f, -1.57496452e-01f, 1.06979579e-01f, -8.76658633e-02f, -8.12962651e-02f, 1.99695960e-01f, 1.01786768e-02f, -7.39586592e-01f, 2.03653544e-01f, 8.66491273e-02f, 3.13694887e-02f, 1.14853941e-01f, 5.68391025e-01f, 2.98251156e-02f, -9.33929682e-02f, 3.83379608e-01f, 5.78962088e-01f, -5.78627765e-01f, 1.62473708e-01f, 2.66152859e-01f, 6.64286375e-01f, -6.85395062e-01f, -4.40118194e-01f, -1.08184740e-01f, 9.81042311e-02f, -2.15535954e-01f, -1.60998061e-01f, -8.44236672e-01f, -2.58462846e-01f, 1.60317719e-02f, -8.49074051e-02f, -1.14157371e-01f, -7.19862431e-02f, 1.20995961e-01f, 1.72159612e-01f, 7.90380895e-01f, 1.37265027e-01f, 2.46300235e-01f, -2.35669807e-01f, -1.19605251e-01f, 9.01313797e-02f, 4.93578501e-02f, -4.25194442e-01f, -3.93406540e-01f, -1.47419637e-02f, -1.64526761e-01f, -3.36226434e-01f, 2.24949103e-02f, -1.30698889e-01f, -3.62604737e-01f, 4.25972700e-01f, -9.13903639e-02f, -2.67941535e-01f, -1.31220490e-01f, 1.29271835e-01f, -6.22571260e-02f, -1.98330939e-01f, 3.36148560e-01f, 3.49093795e-01f, 9.78901610e-02f, 3.29021037e-01f, 1.59826018e-02f, -4.58026588e-01f, 3.49961221e-01f, 1.05454631e-01f, -1.79353625e-01f, 3.44236493e-02f, 8.58747959e-02f, 1.16886035e-01f, 4.60820466e-01f, -1.78510062e-02f, -1.44121677e-01f, 5.37109852e-01f, -8.23975265e-01f, 2.33224526e-01f, -3.91343003e-03f, -4.21022205e-03f, -1.68025121e-01f, -5.72492033e-02f, 1.55590445e-01f, -1.63935889e-02f, 3.69930595e-01f, 6.31603360e-01f, 2.45563105e-01f, 3.47612917e-01f, 2.19502807e-01f, -5.63324504e-02f, -1.10754550e-01f, -2.35889807e-01f, -2.52176583e-01f, -1.18836269e-01f, 1.26422225e-02f, 1.52350828e-01f, -4.51872945e-01f, 4.80815679e-01f, -4.96719003e-01f, -9.46493372e-02f, -1.32325336e-01f, -3.88031125e-01f, -1.71769902e-01f, -1.39649659e-01f, -4.33017053e-02f, 2.64230013e-01f, 1.17796980e-01f, -3.86331260e-01f, -1.12608252e-02f, -4.48841713e-02f, -2.46672228e-01f, 3.90026644e-02f, 8.09633285e-02f, -1.45782292e-01f, 1.24704093e-01f, 1.80073723e-01f, 6.22193068e-02f, 2.67715216e-01f, 1.50330648e-01f, -5.70891835e-02f, 3.37177366e-01f, -1.59327731e-01f, -3.89356941e-01f, 8.01446661e-02f, -1.19494379e-01f, 1.10412501e-02f, -1.59722134e-01f, 2.46528670e-01f, 2.84576556e-03f, 8.81230012e-02f, 1.74195141e-01f, -2.43361980e-01f, 3.92133296e-01f, -6.58872128e-02f, -2.45873351e-02f, 1.23444356e-01f, -3.32046360e-01f, 1.82711333e-01f, -1.04744136e-01f, 4.37159687e-01f, 3.99162859e-01f, 4.80255932e-01f, -1.41702354e-01f, -2.68175572e-01f, 1.19905159e-01f, 2.10406125e-01f, 4.47289169e-01f, -2.83354908e-01f, 9.64175165e-03f, -1.12904094e-01f, -1.90151289e-01f, -3.62385474e-02f, 2.00953603e-01f, -7.45021030e-02f, 1.85212642e-01f, -2.30494425e-01f, 3.64069164e-01f, 1.56077117e-01f, -1.51163563e-01f, -1.22079581e-01f, 1.50295228e-01f, -4.10727859e-01f, -1.97473150e-02f, -2.27371648e-01f, 6.04223385e-02f, 2.89722923e-02f, -1.70462415e-01f, -6.33824542e-02f, -6.24173135e-02f, -5.09223603e-02f, -3.37660074e-01f, -4.81001422e-04f, 9.68065634e-02f, -1.76004335e-01f, 2.01110125e-01f, -2.39845753e-01f, -3.98178957e-02f, 2.92846430e-02f, -6.85475841e-02f, 1.54803619e-01f, -3.42290476e-02f, -3.93218726e-01f, 2.58289576e-01f, 7.04020336e-02f, 1.26072511e-01f, -1.07939169e-01f, -2.76760489e-01f, -6.26662895e-02f, 1.49983779e-01f, -2.80084699e-01f, 4.66655679e-02f, 2.38765627e-01f, 2.90026039e-01f, -2.16885582e-02f, -3.57370049e-01f, 2.35389248e-01f, -6.40884787e-02f, -2.31587872e-01f, -5.06079197e-01f, 2.47443672e-02f, 2.74007797e-01f, 1.37707934e-01f, 1.53793573e-01f, -3.29429477e-01f, -1.29713595e-01f, -9.86338407e-02f, -3.17948200e-02f, -7.27442503e-02f },
  { 7.28877783e-02f, -9.18531343e-02f, -2.37295181e-01f, 3.92927155e-02f, -1.00469507e-01f, -1.43824831e-01f, 1.47311643e-01f, -1.90627649e-01f, -1.22537408e-02f, -9.26479995e-02f, -1.66043535e-01f, -4.33954112e-02f, 2.82472312e-01f, 1.16820693e-01f, 4.17873800e-01f, 3.23950797e-02f, 3.78789231e-02f, 9.33542699e-02f, 6.63991034e-01f, 2.63574481e-01f, 5.23681082e-02f, -1.62545666e-01f, 3.46572995e-01f, 1.59215793e-01f, -1.27670288e-01f, 2.08366543e-01f, -3.12748373e-01f, -1.43827964e-02f, 1.58146560e-01f, 4.63065431e-02f, 1.70124725e-01f, -3.21401536e-01f, -2.49440789e-01f, 4.42225486e-03f, 7.92375654e-02f, 1.21279433e-01f, 3.57109644e-02f, -3.55088338e-02f, 5.03148548e-02f, 9.91386920e-02f, 1.61843617e-02f, -2.90755332e-02f, 3.21663618e-01f, -3.06984428e-02f, -6.08692527e-01f, -1.52970985e-01f, -2.57871468e-02f, -2.17668578e-01f, -6.12863153e-02f, -2.72580869e-02f, -4.96407837e-01f, -3.99454117e-01f, -4.08843011e-02f, -2.26685405e-01f, -7.61609450e-02f, -1.10820739e-03f, -1.57498598e-01f, -8.98212940e-02f, 2.73228325e-02f, 2.20414102e-01f, 1.02962717e-01f, 2.28252143e-01f, 9.79917217e-03f, -3.17527093e-02f, -5.44378124e-02f, 5.44757806e-02f, 2.24962503e-01f, 5.92597350e-02f, 1.65094137e-01f, -8.65786970e-02f, -8.79666954e-02f, -2.27795038e-02f, -1.54364496e-01f, 5.56376457e-01f, 1.56791992e-02f, -3.77836917e-03f, -4.13642451e-02f, 1.83088720e-01f, 1.65205419e-01f, -2.04234093e-01f, 1.02333628e-01f, 3.65042269e-01f, -6.43571317e-02f, -2.91588098e-01f, 3.45504507e-02f, 3.12070474e-02f, 2.27494299e-01f, 1.69101492e-01f, -1.33686230e-01f, -1.95589557e-01f, 1.23076253e-01f, 1.95520133e-01f, 1.09607324e-01f, -5.96593954e-02f, -6.41400963e-02f, -2.97098346e-02f, 4.91693849e-03f, -2.07803696e-01f, -9.69614014e-02f, 2.09555980e-02f, 7.89631531e-03f, 3.00402436e-02f, -1.01348631e-01f, -1.84525877e-01f, -4.32502897e-03f, -3.37398559e-01f, 2.04277933e-02f, -2.41003409e-01f, -1.56729966e-01f, -1.61997572e-01f, 1.84287149e-02f, 1.74110994e-01f, 2.45872617e-01f, -1.28747821e-01f, 1.86357647e-01f, -3.45929354e-01f, 1.04842469e-01f, 1.25144407e-01f, 3.80334228e-01f, 1.45856082e-01f, -2.73003709e-02f, 2.95766056e-01f, 1.19669072e-01f, 1.66071370e-01f, 1.17123343e-01f, 3.86424437e-02f, -2.22543746e-01f, 6.92769662e-02f, 7.78154656e-02f, -1.08869240e-01f, -4.32848595e-02f, 8.82334262e-02f, -1.85414046e-01f, -7.79078901e-02f, 9.88968685e-02f, -1.17012277e-01f, 2.37048537e-01f, -2.25026563e-01f, 1.02097094e-01f, -5.61486959e-01f, 6.72031641e-02f, -3.14524956e-02f, -2.04067640e-02f, -3.20737511e-02f, -2.93425947e-01f, -3.03167433e-01f, 9.03256908e-02f, -8.11260223e-01f, -1.07953753e-02f, -2.57840548e-02f, -2.01300159e-01f, -2.08151788e-01f, 1.01156816e-01f, 2.99834251e-01f, -7.45268017e-02f, 6.53075278e-02f, 1.11474907e-02f, 3.86281461e-02f, 5.09187654e-02f, -3.26427966e-01f, 3.43341567e-02f, 1.97471976e-02f, 1.32331595e-01f, -2.25300655e-01f, 2.70461798e-01f, -1.07746636e-02f, 1.14448689e-01f, -3.24252471e-02f, -1.86272174e-01f, -1.24050781e-01f, 1.00272164e-01f, -2.05738991e-01f, 1.12395875e-01f, 5.48161924e-01f, -4.92322259e-02f, -1.88851193e-01f, -2.86998190e-02f, -1.83429316e-01f, 3.19480330e-01f, -1.15369380e-01f, 1.76189765e-01f, 6.56927168e-01f, 4.67641838e-02f, -1.08838938e-01f, -1.93323180e-01f, 1.92559302e-01f, 7.83849880e-02f, 3.46243158e-02f, 7.81672522e-02f, -3.10250729e-01f, -1.43555209e-01f, -6.23507351e-02f, -1.01834357e-01f, 1.73534006e-02f, 8.09149370e-02f, -3.23127210e-02f, -3.63590233e-02f, 2.64672898e-02f, -1.42722726e-01f, -9.02987868e-02f, -4.93221134e-02f, 1.18348345e-01f, -2.61103660e-01f, -3.66885483e-01f, -1.34666771e-01f, -1.05216585e-01f, -1.28216781e-02f, 4.66713496e-03f, -1.96929023e-01f, -1.52935743e-01f, -1.38506562e-01f, -7.43278265e-01f, 1.78945586e-01f, -3.67666990e-01f, -4.50627267e-01f, 1.04720402e+00f, -3.15647349e-02f, 5.77995956e-01f, 3.23065013e-01f, -1.70922861e-01f, -2.45912954e-01f, 2.67120242e-01f, -2.95302033e-01f, 3.69473174e-02f, 7.43345976e-01f, 1.00417316e-01f, -6.26103580e-01f, -3.76680940e-02f, -7.81147659e-01f, -6.76610649e-01f, 4.34587300e-01f, -8.14606965e-01f, -2.19684169e-01f, 8.68457779e-02f, 4.62244190e-02f, -3.34207237e-01f, -8.22958350e-02f, 1.04866229e-01f, -6.30280972e-02f, -3.41985196e-01f, 2.41272077e-01f, -3.09574343e-02f, -4.73160058e-01f, -5.47367036e-01f, -7.19292402e-01f, -1.44127041e-01f, 1.01037197e-01f, -7.23492801e-02f, -3.03620309e-01f, 2.34665930e-01f, 6.55212820e-01f, -6.01941884e-01f, -3.75171751e-02f, -1.01130046e-01f, 4.59961385e-01f, -5.41164100e-01f, -2.95572728e-01f, 7.15576231e-01f, -1.70014471e-01f, 4.45711575e-02f, 5.18742502e-02f, 4.40993041e-01f, -8.93820882e-01f, -2.53645927e-02f, -1.11272842e-01f, 4.11206000e-02f, 1.17638372e-01f, 1.49207428e-01f, -1.60069361e-01f, -3.53238940e-01f, 1.76202536e-01f, -1.64036512e-01f, -6.55997247e-02f, -4.68631953e-01f, -4.57890272e-01f, 5.71908593e-01f, 1.12691253e-01f, 6.84337437e-01f, -1.55932322e-01f, 5.42955399e-01f, -1.28416494e-01f, 8.49101782e-01f, 2.96035944e-03f, 4.68062252e-01f, -2.42098778e-01f, -1.12533815e-01f, 4.85128686e-02f, -1.69563487e-01f, 9.64540720e-01f, -1.24320470e-01f, -5.91566384e-01f, 1.57018974e-02f, 5.01921415e-01f, 1.06644422e-01f, 7.29803741e-03f, 9.17294547e-02f, 1.55124024e-01f, 9.05237868e-02f, 2.17765197e-02f, -4.01081473e-01f, 4.04543355e-02f, 3.92243406e-03f, -2.59535491e-01f, -1.80848941e-01f, -6.08953349e-02f, -2.93351244e-02f, -1.61429837e-01f, -4.05647121e-02f, -5.96722402e-02f, 2.39918046e-02f, -6.43671975e-02f, 1.52116135e-01f, 4.77759354e-02f, -2.25640371e-01f, 2.37572178e-01f, 2.96318866e-02f, 3.73320095e-02f, -2.42126465e-01f, -1.77623868e-01f, 1.30039409e-01f, -1.56033173e-01f, 3.34390879e-01f, 1.73476070e-01f, -2.76911825e-01f, 1.94279909e-01f, -8.26998577e-02f, -1.42132312e-01f, 1.81211680e-01f, -6.44693747e-02f, -8.28969702e-02f, -1.80671990e-01f, -2.32766300e-01f, -1.89886525e-01f, -1.37770876e-01f, 1.14843242e-01f, -1.36428043e-01f, 8.52047652e-02f, 9.80921928e-03f, 1.08814053e-01f, -5.93684576e-02f, -1.11313798e-01f, 2.22194567e-02f, 1.06072992e-01f, 1.06924079e-01f, -2.72060931e-01f, -1.67294703e-02f, 8.17918256e-02f, -3.77953202e-01f, 9.00135562e-02f, 1.86609954e-01f, -4.64296281e-01f, -6.17049038e-02f, -1.11603238e-01f, 1.81959093e-01f, -7.16588274e-02f, -1.08627789e-01f, -8.98799300e-02f, 1.32158726e-01f, -9.81682446e-04f, -2.46399581e-01f, -1.47291467e-01f, 2.54251868e-01f, 3.59375402e-02f, 1.00123040e-01f, 2.41890579e-01f, -8.49018171e-02f, 2.09413663e-01f, 1.02800727e-01f, -2.13897929e-01f, -1.09793670e-01f, -4.21007648e-02f, -8.34477916e-02f, -1.57442108e-01f, 7.39664864e-03f, 8.64078477e-03f, -2.44687170e-01f, 3.25720757e-04f, -7.88530409e-02f, 2.08967119e-01f, 1.73750013e-01f, -2.31690239e-02f, -4.51438874e-02f, 1.55492565e-02f, -1.11286283e-01f, -1.54541820e-01f, 1.43822968e-01f, -1.65711924e-01f, 6.79224730e-02f, -7.52835907e-03f, -1.30805537e-01f, -1.04634963e-01f, -3.87101993e-02f, 1.06665291e-01f, -1.59252584e-01f, -4.75971028e-02f, -3.41008976e-02f, -1.62689641e-01f, -2.86634117e-02f, -5.08782342e-02f, -2.02976733e-01f },
  { -1.24652520e-01f, 4.21458483e-02f, -1.10682316e-01f, -7.48933330e-02f, 7.63335600e-02f, -8.68852902e-03f, -2.28939906e-01f, -5.85528985e-02f, -1.57181054e-01f, 2.00545657e-02f, -1.78195804e-01f, -1.53154895e-01f, 1.22652315e-01f, 1.53982861e-03f, 4.49995428e-01f, 1.09611928e-01f, -1.21386483e-01f, 2.53287762e-01f, -6.05940931e-02f, 2.42078267e-02f, 1.22592583e-01f, -2.13463288e-02f, 2.33815327e-01f, 3.00243914e-01f, -7.46846246e-03f, -1.22291386e-01f, -7.39300996e-02f, -1.60162807e-01f, 1.03340678e-01f, -5.16314022e-02f, 7.52777755e-02f, -2.35900432e-01f, -1.14125274e-01f, 3.47598940e-02f, -2.44655788e-01f, -2.36479696e-02f, -1.01558454e-01f, 7.49569759e-02f, -1.53945342e-01f, -8.61292183e-02f, -1.02642111e-01f, -1.68222442e-01f, 8.76268297e-02f, -2.84931540e-01f, 2.01134220e-01f, 1.55260175e-01f, -1.11293584e-01f, 8.70377198e-02f, 1.44736394e-01f, 3.00479550e-02f, 3.19932342e-01f, 1.19074665e-01f, 8.37129876e-02f, -1.83196753e-01f, 1.12025559e-01f, -8.27469528e-02f, -2.00626001e-01f, -2.77340808e-03f, -7.15407208e-02f, 3.30903381e-02f, 1.37083486e-01f, -4.13620993e-02f, -3.66661400e-01f, 3.22651342e-02f, -4.19004448e-03f, 5.35892919e-02f, 9.52318218e-03f, -1.65848240e-01f, -1.40834257e-01f, 1.08040400e-01f, -5.17053567e-02f, 4.71693039e-01f, -2.93405473e-01f, -2.29355078e-02f, 1.32565036e-01f, -3.74865472e-01f, -1.67603299e-01f, 3.14170197e-02f, 6.69114590e-02f, -7.26339296e-02f, 2.88437586e-02f, 8.70797113e-02f, -2.63743103e-01f, -5.11586247e-03f, 3.26726027e-03f, -5.05201757e-01f, 1.70341775e-01f, -5.97547218e-02f, -1.20032467e-01f, -1.85819417e-01f, -2.32501805e-01f, -1.41733736e-01f, 5.42556345e-02f, 4.01236087e-01f, -5.48381209e-02f, -1.21021636e-01f, 5.38498797e-02f, -1.39087543e-01f, 1.52044788e-01f, 5.72558083e-02f, -7.65546486e-02f, 6.85435236e-02f, -4.47569579e-01f, 3.15696858e-02f, -1.93383038e-01f, 5.66030443e-02f, 2.71780729e-01f, -4.72699146e-04f, -1.32100493e-01f, -9.15079378e-03f, 1.25634998e-01f, 1.32559821e-01f, 6.85930103e-02f, -3.17008309e-02f, 1.04531594e-01f, 1.05192550e-02f, 2.28577368e-02f, 3.72641295e-01f, 8.17031637e-02f, -3.24838698e-01f, 6.09458499e-02f, 2.19525978e-01f, 1.22230209e-01f, 2.09825039e-01f, 3.68940458e-02f, -1.21793807e-01f, -2.78561153e-02f, -3.89133617e-02f, 5.41200489e-02f, 5.87314144e-02f, -2.64646202e-01f, -1.07241698e-01f, 1.67329118e-01f, -3.68596882e-01f, -1.53524727e-01f, 2.07652852e-01f, -2.00827301e-01f, 1.55009791e-01f, 3.34218070e-02f, -3.11754327e-02f, 1.05113700e-01f, -6.15658015e-02f, 1.01607516e-01f, -1.90997586e-01f, 2.13073313e-01f, 4.58828136e-02f, -7.46018812e-02f, -2.03065395e-01f, 2.23446757e-01f, -3.14505026e-03f, 2.32642755e-01f, 1.96402594e-01f, 2.70344354e-02f, -2.35266969e-01f, 2.33837828e-01f, 5.57732955e-02f, -4.57318686e-02f, 3.44194025e-02f, 2.74444204e-02f, -1.04596086e-01f, 3.23002428e-01f, 1.62104473e-01f, -1.36686265e-01f, -1.33295670e-01f, 1.16650268e-01f, 8.53423104e-02f, -1.41380532e-02f, 1.08354747e-01f, -1.12169459e-01f, 2.03645870e-01f, -5.05791605e-02f, 3.31158042e-01f, 3.70679935e-03f, 1.86213776e-01f, -1.51661575e-01f, -2.99927592e-01f, -3.56685907e-01f, 5.91341220e-03f, 1.64307624e-01f, -8.10469538e-02f, 2.40737945e-02f, 1.61473662e-01f, 1.22651402e-02f, -1.06040752e-02f, 4.04301256e-01f, -1.98459521e-01f, 2.14684114e-01f, 3.21878083e-02f, 2.67931819e-02f, 2.15696007e-01f, -4.45519507e-01f, 5.57483621e-02f, 8.40752274e-02f, -7.22246543e-02f, -1.53888404e-01f, -7.43710771e-02f, 1.24686897e-01f, -9.75106806e-02f, 2.02001274e-01f, 8.19791034e-02f, 7.80772232e-03f, -2.42023319e-01f, 1.24406636e-01f, 1.42512932e-01f, -1.04602247e-01f, 1.35150045e-01f, -1.35776296e-01f, -2.31817797e-01f, -2.34178171e-01f, -4.67361324e-02f, -5.71614504e-01f, -1.16282821e-01f, -1.71015561e-01f, 2.17209291e-02f, -2.85614610e-01f, 1.96660757e-01f, -1.45009428e-01f, 1.18181981e-01f, -2.28841305e-01f, -3.04483473e-01f, -1.32230997e-01f, 1.69261307e-01f, -2.34518826e-01f, 7.10347295e-01f, 1.47202417e-01f, -2.98950542e-02f, -1.57758713e-01f, 6.88839778e-02f, 7.31917620e-01f, 9.78052318e-02f, 1.73304096e-01f, -2.02648580e-01f, -1.57296211e-01f, -8.59456509e-02f, -9.80423316e-02f, -1.55895635e-01f, 1.16025120e-01f, 7.87599087e-01f, -6.06183931e-02f, -5.82893416e-02f, -8.89929608e-02f, 1.34835511e-01f, 2.46668413e-01f, 7.37637639e-01f, 6.01982176e-02f, 6.48760274e-02f, 1.25830188e-01f, 1.40206799e-01f, -5.99610984e-01f, 8.46765786e-02f, -1.95509836e-01f, -2.78682485e-02f, 8.39501470e-02f, -9.60892141e-02f, 9.70129520e-02f, -1.06604144e-01f, -1.78162649e-01f, -1.57918632e-02f, 2.13260129e-01f, 6.18203543e-02f, 1.04051530e-01f, 1.22884400e-01f, 3.94405872e-01f, 3.11928689e-02f, -8.16617981e-02f, -5.41536808e-01f, 1.37295336e-01f, 2.48934999e-01f, 5.30944031e-04f, -5.01702651e-02f, -8.76942053e-02f, -4.18114871e-01f, -2.19241053e-01f, 9.46886688e-02f, 6.35137379e-01f, 1.23136461e-01f, 2.11402118e-01f, 1.65601373e-01f, -2.93855786e-01f, 1.06824756e-01f, 1.77151933e-01f, 3.55101973e-01f, 2.00300977e-01f, -4.69479799e-01f, -9.79231521e-02f, 1.61944509e-01f, 5.10603972e-02f, -1.06699476e-02f, -7.87159428e-02f, -2.85732687e-01f, -1.45020172e-01f, 2.58977145e-01f, 5.55180386e-02f, -1.89965725e-01f, -2.84210294e-01f, 2.02510208e-01f, 4.44929779e-01f, -2.37489462e-01f, -3.33836943e-01f, 3.60452384e-01f, 1.48627892e-01f, -2.11616516e-01f, 1.67414490e-02f, 1.34410694e-01f, -2.77868092e-01f, -1.23565935e-01f, 1.50793657e-01f, -3.40975858e-02f, -2.46581718e-01f, 6.05528094e-02f, -8.48653316e-02f, -3.97786275e-02f, -1.69716135e-01f, 8.78282189e-02f, 1.68625236e-01f, 2.30365917e-01f, -1.40431136e-01f, -1.02168366e-01f, -2.23302007e-01f, 1.49049580e-01f, 1.12361768e-02f, 1.17266521e-01f, 2.68042386e-02f, 9.93089825e-02f, 1.28653988e-01f, 3.74876000e-02f, -4.59811501e-02f, -2.17202976e-02f, -7.48769343e-02f, 2.09089115e-01f, -1.07484721e-01f, -7.58526381e-03f, -1.80644125e-01f, 1.04771383e-01f, -3.32571417e-01f, -7.50449002e-02f, -3.59481514e-01f, -1.94222197e-01f, -6.86530247e-02f, 7.61333667e-03f, 1.58296302e-02f, 8.15361217e-02f, -6.80123046e-02f, 1.34198174e-01f, 1.75329089e-01f, 9.05614793e-02f, -1.09923892e-01f, -2.49071747e-01f, -1.02502964e-01f, -2.96393454e-01f, 4.90218289e-02f, 3.28970999e-02f, -2.46610846e-02f, -2.28939839e-02f, 1.90482527e-01f, 4.03622359e-01f, -1.01153322e-01f, -2.16475904e-01f, 2.82861255e-02f, 1.87946837e-02f, -7.32533168e-04f, -9.67702642e-02f, 7.39898905e-02f, -8.04746449e-02f, -7.57166520e-02f, 8.44613463e-02f, 1.89011842e-02f, 1.70174986e-01f, -3.33079509e-02f, 3.15137357e-02f, 1.47784233e-01f, -4.75227050e-02f, -3.84169072e-02f, -8.27587098e-02f, -2.20566764e-01f, -1.72496647e-01f, -1.77223459e-01f, 3.16666365e-01f, -1.11181121e-02f, -4.90959780e-03f, 8.46598893e-02f, 2.22607672e-01f, -2.58446455e-01f, 2.01017708e-01f, 1.70124426e-01f, -2.28726238e-01f, 1.23125352e-01f, -4.14839908e-02f, -1.55934542e-01f, 2.84750283e-01f, -6.17055595e-02f, 1.33179441e-01f, 3.53392139e-02f, 4.58393134e-02f, -2.81879678e-02f, -8.88729915e-02f, 2.26637080e-01f, 1.15103640e-01f, 2.93248612e-02f, 1.12445913e-02f },
  { -1.91032052e-01f, 4.62176315e-02f, 5.49912080e-02f, -1.20050773e-01f, -7.63156936e-02f, -2.69065499e-02f, 1.46606252e-01f, -2.07161549e-02f, -4.27690744e-02f, 1.08649090e-01f, 2.82124639e-01f, 2.02777401e-01f, -2.56971538e-01f, -2.63734967e-01f, -3.30384052e-03f, 4.21589501e-02f, 7.85312653e-02f, 6.94969147e-02f, 2.93087751e-01f, 1.54397264e-01f, 2.80038081e-02f, -1.88855715e-02f, -2.87498325e-01f, -9.53287855e-02f, -1.10793248e-01f, 1.39433593e-01f, 7.31632635e-02f, 9.76445153e-02f, 2.49002814e-01f, -1.13823719e-01f, -3.45372021e-01f, -1.04329653e-01f, 8.98107067e-02f, -2.43773311e-01f, -3.95150304e-01f, -3.31794843e-02f, -9.16275606e-02f, -3.01560163e-01f, -1.09364308e-01f, 1.26200393e-01f, -7.86332414e-02f, 1.10099688e-01f, -3.69263470e-01f, 1.85525790e-01f, -1.98377416e-01f, 1.07050553e-01f, 2.02655300e-01f, -2.24496394e-01f, -1.25869542e-01f, -1.68369547e-01f, -4.05612022e-01f, -2.22803906e-01f, 5.12169190e-02f, 3.67519818e-02f, -7.89744034e-02f, 2.09102869e-01f, -2.63853341e-01f, 8.00176412e-02f, -4.13783312e-01f, 6.28066482e-05f, -4.91400920e-02f, 2.66712397e-01f, 2.10444763e-01f, -2.25372948e-02f, 1.22260056e-01f, -5.29109836e-02f, 1.53350398e-01f, -2.03350648e-01f, -9.73145850e-03f, 1.49552584e-01f, 1.78811923e-01f, 8.52735043e-02f, 1.38341993e-01f, -1.53928876e-01f, -1.47556672e-02f, -1.07787855e-01f, -2.01975003e-01f, -7.54732490e-02f, -1.38348103e-01f, -1.46448445e-02f, 5.84259182e-02f, -4.49844636e-03f, 3.35996505e-03f, 1.21701322e-02f, 2.14672953e-01f, -3.12060624e-01f, 1.32108256e-01f, 1.66699395e-01f, 1.02105197e-02f, 5.84903918e-02f, -1.47585878e-02f, -3.05583656e-01f, -4.00589168e-01f, -2.64015168e-01f, -3.51804167e-01f, -1.20727904e-01f, 8.73069689e-02f, -5.83939292e-02f, -3.01698774e-01f, -1.09788351e-01f, -3.81099582e-01f, 1.30077943e-01f, -8.26397389e-02f, 4.67901565e-02f, -4.43989784e-02f, 1.18642420e-01f, -7.86909014e-02f, -1.03347100e-01f, -1.08237095e-01f, -2.88480129e-02f, 2.02981353e-01f, 4.72692996e-02f, 3.38025414e-03f, 2.19229925e-02f, -1.85521170e-02f, -1.66533932e-01f, 1.52461067e-01f, -1.73807263e-01f, 2.89250165e-01f, 1.54199138e-01f, 4.62692752e-02f, 3.84471714e-02f, -3.49152274e-02f, -2.36135632e-01f, -6.27831444e-02f, 7.21663162e-02f, -9.38074961e-02f, 7.71573037e-02f, 9.65031087e-01f, -3.56847905e-02f, -4.65758830e-01f, -1.67239934e-01f, -1.03401400e-01f, 1.44600093e-01f, -5.80225289e-01f, -4.98185866e-04f, -1.00436233e-01f, 8.41326118e-02f, -5.49382418e-02f, 4.53878790e-02f, -3.32337059e-02f, -5.03012426e-02f, 3.17867063e-02f, 8.04769695e-02f, -2.16573209e-01f, 1.56518705e-02f, -2.46357098e-01f, -2.89317906e-01f, -2.11301014e-01f, 3.87887694e-02f, -3.47494036e-01f, -1.08152227e-02f, 1.82164222e-01f, -1.00185707e-01f, -2.12546974e-01f, 1.96098909e-01f, -2.22026736e-01f, 3.79461825e-01f, -4.42581743e-01f, -2.60568336e-02f, 1.54191792e-01f, -2.53960770e-02f, -4.27847385e-01f, -4.50246148e-02f, -4.29228507e-02f, -9.37894806e-02f, 1.21451639e-01f, -2.56793529e-01f, 2.29132310e-01f, -5.24259657e-02f, 1.13181183e-02f, 4.75176163e-02f, -3.55337650e-01f, -2.55549014e-01f, -1.02328379e-02f, 2.05549508e-01f, -2.62479663e-01f, -2.01742053e-02f, -3.04287553e-01f, -6.71864375e-02f, -2.69964308e-01f, -2.33696122e-02f, 1.24211073e-01f, -2.54463609e-02f, -1.10500388e-01f, 4.23295749e-03f, 1.78846374e-01f, -3.68264765e-01f, -1.83999315e-02f, 1.54459566e-01f, -2.85386592e-02f, -1.52855232e-01f, 1.18709996e-01f, -2.66408324e-02f, -7.40815252e-02f, -2.05158722e-02f, 7.71632940e-02f, 7.85071850e-02f, -3.03739101e-01f, -5.84231690e-02f, 6.45240128e-01f, 1.55468538e-01f, 1.77687973e-01f, -9.24433768e-02f, 1.64302260e-01f, 1.63794402e-02f, 6.24486543e-02f, 4.59296955e-03f, -1.62195876e-01f, 1.39206961e-01f, 2.52541881e-02f, 2.97577947e-01f, 4.93587881e-01f, -6.08369231e-01f, 1.72409955e-02f, -5.10042682e-02f, 7.49187768e-01f, -4.19833332e-01f, 5.29667318e-01f, -2.07111195e-01f, 2.47862354e-01f, 1.40362427e-01f, 6.06260821e-02f, -2.03373373e-01f, 3.46551418e-01f, 1.08042723e-02f, 8.74126777e-02f, -3.24394405e-01f, -6.39149427e-01f, -4.06710953e-01f, -3.37954402e-01f, 7.84140602e-02f, -1.40664890e-01f, 3.89282405e-01f, 7.44289160e-02f, -9.73981500e-01f, -6.27751574e-02f, 4.61638600e-01f, -5.22017889e-02f, 3.47949535e-01f, 5.87916411e-02f, -4.62394021e-02f, 7.27293491e-02f, -5.40766299e-01f, -1.35977060e-01f, 2.68835537e-02f, -1.42530262e-01f, -5.01532815e-02f, -4.57460642e-01f, 8.73453915e-02f, 6.55064225e-01f, -4.60592151e-01f, 1.86771944e-01f, 1.33932568e-02f, 2.63676226e-01f, 3.91279221e-01f, 1.13250226e-01f, 3.99785101e-01f, 5.85413575e-01f, 7.61337057e-02f, 2.54208475e-01f, 2.11611643e-01f, -1.59653276e-02f, 4.44328599e-02f, 8.45281482e-02f, 1.15488142e-01f, -2.11990878e-01f, -2.41275132e-01f, 2.44109444e-02f, -1.20589457e-01f, 1.84891477e-01f, -4.60494071e-01f, -1.05662264e-01f, 6.64645359e-02f, -5.81137061e-01f, 4.27075773e-01f, -2.76976496e-01f, 6.05162978e-02f, 8.08939338e-02f, -5.09000897e-01f, 2.80657951e-02f, -5.62440515e-01f, 3.74987066e-01f, -1.89261548e-02f, 4.70606476e-01f, 2.22964048e-01f, 2.74569429e-02f, -4.19921875e-01f, 4.71320748e-02f, -2.18792215e-01f, 1.53489516e-03f, 3.36583960e-03f, 1.17703593e+00f, 4.17376570e-02f, -8.08491278e-03f, 8.08850825e-02f, -3.39102000e-01f, 2.33949050e-02f, 1.10904324e+00f, -2.61766911e-01f, 6.49869069e-02f, -1.45713408e-02f, 7.25598633e-02f, -9.21855401e-03f, 2.40679801e-01f, 6.60397951e-03f, -1.38877884e-01f, -2.24857822e-01f, 8.59995410e-02f, -6.07928298e-02f, 4.33724612e-01f, -6.14049025e-02f, -8.28555375e-02f, 5.34351356e-02f, -1.08553683e-02f, -3.48941565e-01f, 2.68189460e-01f, -7.59020373e-02f, 2.66770244e-01f, 1.74007975e-02f, 1.95127845e-01f, -4.67073582e-02f, -2.12121412e-01f, -2.27172039e-02f, -8.59149620e-02f, 3.56623262e-01f, 5.83107509e-02f, 1.95962340e-01f, 3.14307809e-01f, 3.61146941e-03f, 5.13562262e-02f, -1.82576850e-02f, 3.55015211e-02f, -1.56306893e-01f, -4.03308392e-01f, -2.45384857e-01f, 6.35371283e-02f, 3.42598297e-02f, 2.92021874e-02f, 2.36420669e-02f, -5.76966777e-02f, -6.46145940e-02f, 2.31758761e-03f, -4.51152166e-03f, -1.52346879e-01f, -3.35760772e-01f, -4.80325595e-02f, 5.84942922e-02f, 1.30456928e-02f, 1.36641622e-01f, -3.64435285e-01f, -2.44380325e-01f, 2.82359064e-01f, -7.98110440e-02f, -7.00184554e-02f, -2.89895665e-02f, -8.14677253e-02f, 3.26591998e-01f, -3.76396507e-01f, 2.40904585e-01f, 7.87913427e-03f, 2.00586125e-01f, -6.93356469e-02f, 2.68990919e-02f, -3.63697074e-02f, 2.13889778e-02f, 3.85640174e-01f, 8.65999535e-02f, 2.64477789e-01f, 8.06368813e-02f, 2.25965939e-02f, 2.30064616e-01f, -1.04000792e-02f, 5.37197329e-02f, -1.08651973e-01f, 8.05549100e-02f, -1.11178741e-01f, -8.21745098e-02f, -1.16584711e-01f, 3.40917736e-01f, 2.84486949e-01f, -8.50174949e-02f, -6.62352964e-02f, 1.91573426e-01f, -3.07146490e-01f, 9.54981819e-02f, 2.32480422e-01f, 3.29348445e-02f, 1.28269807e-01f, 1.68675512e-01f, -6.49943799e-02f, -9.21883285e-02f, -2.28529736e-01f, -4.81188238e-01f, -8.46481398e-02f, 8.52111056e-02f, 3.97440903e-02f, 1.17677808e-01f, -1.55366540e-01f, 1.00292899e-02f },
};

const float weights_1[100][400] = {
  { 8.00882131e-02f, 2.52057523e-01f, 2.46497110e-01f, 1.36833370e-01f, -1.17762372e-01f, 9.15874261e-03f, -1.20981060e-01f, -5.87019846e-02f, -3.06936428e-02f, 3.40877414e-01f, 6.98593482e-02f, 5.64026423e-02f, -2.77072161e-01f, 1.42769188e-01f, -2.27449164e-01f, -7.21252933e-02f, -1.81110315e-02f, 1.14788339e-02f, -1.38656810e-01f, 4.60395455e-01f, -3.56320292e-02f, -1.42458573e-01f, 2.33996417e-02f, -3.15629810e-01f, -8.69160369e-02f, -2.79070318e-01f, -2.39325628e-01f, 1.48458779e-01f, 1.43752053e-01f, 9.57707763e-02f, 1.59271032e-01f, 8.51846188e-02f, 1.79417878e-01f, 4.88287732e-02f, -2.77630668e-02f, -1.73206657e-01f, -6.80059791e-02f, 4.21615280e-02f, -1.40672967e-01f, -8.74951407e-02f, 3.38253081e-01f, 7.01828897e-02f, -2.44713098e-01f, -8.68386477e-02f, 3.17680240e-01f, -8.63663927e-02f, -5.89737557e-02f, 1.08192563e-01f, -2.46362872e-02f, -6.52825534e-02f, -1.59272000e-01f, -4.26681072e-01f, 1.75360918e-01f, 1.78045094e-01f, 9.76951644e-02f, 2.78705172e-02f, -3.31013471e-01f, 1.68112107e-02f, -2.94247776e-01f, 3.02472740e-01f, -6.33372888e-02f, 2.05994844e-01f, -3.64206769e-02f, 2.64862686e-01f, 4.97342534e-02f, -4.46024947e-02f, 2.59348936e-02f, 1.59207620e-02f, -1.28819391e-01f, -4.61797044e-02f, 1.39402553e-01f, 8.48062336e-02f, -2.33221874e-02f, -4.69911397e-02f, -2.00816765e-01f, -2.50022799e-01f, -2.56887287e-01f, 1.43482581e-01f, -1.41584426e-01f, -3.85481864e-01f, -2.68323004e-01f, -5.45966744e-01f, -8.85536522e-03f, 8.49539489e-02f, 1.11632094e-01f, 1.01034874e-02f, -7.71542173e-03f, -2.39982575e-01f, 1.87139794e-01f, -2.63927191e-01f, -2.47982115e-01f, -1.60282537e-01f, -8.94357413e-02f, -9.91134718e-02f, 5.73037677e-02f, -5.03496006e-02f, -2.00320482e-02f, -3.80250323e-03f, -2.31970415e-01f, 5.25502600e-02f, -2.35725150e-01f, -1.20136514e-02f, 4.35245000e-02f, -1.68415770e-01f, 3.14479880e-03f, 1.47410572e-01f, -6.08032271e-02f, 1.44553781e-02f, -7.97654912e-02f, 3.80194962e-01f, 7.73372948e-02f, 9.38469544e-02f, -3.98916572e-01f, 6.00298718e-02f, -8.02099481e-02f, -3.37912701e-02f, -6.53191954e-02f, 1.04411289e-01f, 1.46809807e-02f, 3.70619327e-01f, 2.14865841e-02f, 3.40156436e-01f, 1.46465659e-01f, -2.32154265e-01f, 1.54027492e-01f, -1.91717312e-01f, -3.01167846e-01f, 1.14286408e-01f, 2.01349795e-01f, 1.63672417e-01f, 9.70834792e-02f, -4.73051704e-03f, 2.04061002e-01f, 2.52676278e-01f, -2.49085069e-01f, -2.04521596e-01f, -3.61289494e-02f, 6.38112845e-03f, 7.48235956e-02f, 6.01902716e-02f, 3.47656250e-01f, 5.20986766e-02f, -1.19750492e-01f, 1.19571008e-01f, 1.54425561e-01f, -1.09701743e-02f, -2.90113449e-01f, 1.32848293e-01f, -4.72388119e-02f, 4.94788475e-02f, -1.28225118e-01f, -2.31452271e-01f, 9.63020548e-02f, -1.51424155e-01f, 5.94944172e-02f, 1.51337564e-01f, -1.04354590e-01f, 1.53549537e-01f, -1.30223021e-01f, 7.90250767e-03f, 4.30477560e-02f, 1.82947308e-01f, -1.59901336e-01f, 1.53138250e-01f, 1.40293777e-01f, 8.42969939e-02f, -4.48738970e-02f, -1.83976498e-02f, 3.70707773e-02f, -5.31590320e-02f, -4.92745936e-02f, 5.62198460e-02f, -5.86391762e-02f, -9.44712088e-02f, -3.18886697e-01f, -2.89871871e-01f, -3.12640294e-02f, 2.45060790e-02f, 1.01878472e-01f, -1.17680226e-02f, -2.88482308e-01f, -1.84118375e-01f, 2.02303022e-01f, 1.35715798e-01f, 1.36505276e-01f, -1.51569977e-01f, 1.71823278e-01f, -2.44578600e-01f, 3.91189367e-01f, -1.03461057e-01f, -2.35798091e-01f, -2.39715576e-02f, -1.17736891e-01f, -1.29258707e-01f, -4.63457741e-02f, 9.31471512e-02f, -1.30838916e-01f, 6.21689670e-02f, -7.08119124e-02f, -1.19724654e-01f, 2.28046045e-01f, -6.46131933e-02f, -5.26002832e-02f, 5.50520197e-02f, 1.54816225e-01f, -1.46349907e-01f, 1.22069068e-01f, -1.33088067e-01f, -9.49065313e-02f, 2.04999819e-01f, 6.14687626e-04f, -1.51193589e-02f, 4.17052321e-02f, -3.86144333e-02f, 1.76397040e-01f, -1.99004430e-02f, 3.51399817e-02f, -1.29321991e-02f, -4.90476824e-02f, -9.52303633e-02f, -4.37183902e-02f, -5.38381487e-02f, 4.78535369e-02f, -1.56168684e-01f, -1.87247116e-02f, 5.29444143e-02f, -3.48652750e-02f, -1.82011798e-02f, -1.31722642e-02f, 7.45717995e-03f, 1.00227967e-02f, 2.92730480e-02f, 5.08354418e-02f, -6.41231332e-03f, 5.99093996e-02f, -7.03605339e-02f, 8.10858533e-02f, 8.75681043e-02f, 4.44898307e-02f, 8.31572935e-02f, 1.70522317e-01f, -2.44161952e-02f, 8.32227767e-02f, -1.24800488e-01f, 3.16248275e-03f, 1.17950831e-02f, -1.11850731e-01f, 2.97563821e-02f, 7.98162371e-02f, -9.32138041e-03f, -4.53880541e-02f, 9.30040050e-03f, -1.17930286e-01f, 3.56012620e-02f, -1.10506013e-01f, -6.12115264e-02f, -3.81247662e-02f, 7.32264817e-02f, 9.63852853e-02f, -1.76806357e-02f, -1.20552607e-01f, 4.82079908e-02f, -4.60583568e-02f, 3.14080305e-02f, 4.20205370e-02f, -9.28151701e-03f, 9.31921527e-02f, -1.23890221e-01f, -1.76943615e-02f, 6.18782602e-02f, 7.22005665e-02f, -4.03524078e-02f, -7.01952912e-03f, 6.54207123e-03f, 8.88752379e-03f, -1.91382039e-02f, -8.29890668e-02f, 8.48433375e-03f, 2.62653977e-02f, -2.26915315e-01f, -5.60313873e-02f, -2.88730524e-02f, -7.41406605e-02f, 2.48199198e-02f, -4.52564582e-02f, -6.39204681e-02f, -5.57144582e-02f, 5.86578809e-02f, 5.77390827e-02f, 5.94823845e-02f, -4.97697014e-03f, -7.76688382e-02f, 1.00762293e-01f, 7.38706589e-02f, 1.45750018e-02f, 7.17259422e-02f, -4.07471247e-02f, 6.22330792e-02f, 8.88991654e-02f, -7.37565756e-02f, 7.35694245e-02f, 1.70183986e-01f, 2.56124943e-01f, 4.28274386e-02f, -2.45357916e-01f, -8.60923976e-02f, -1.56621933e-01f, -9.41537842e-02f, 7.00298622e-02f, 2.17550740e-01f, 9.72689167e-02f, -3.95105705e-02f, -2.22926348e-01f, 2.12864429e-02f, -7.98864588e-02f, 5.81578203e-02f, -1.35943860e-01f, 9.02034789e-02f, -1.68110222e-01f, 3.48870188e-01f, -2.73664156e-03f, 5.11226021e-02f, 2.48118192e-02f, -2.25318447e-01f, 5.20337150e-02f, -1.10720411e-01f, -1.20893463e-01f, 1.05272487e-01f, 2.51937479e-01f, 3.56618427e-02f, -2.36698017e-02f, 1.99090922e-03f, 1.73028290e-01f, 2.21511602e-01f, -2.15489656e-01f, -2.50768900e-01f, 7.22694397e-02f, -2.36216336e-02f, 2.15052254e-02f, -1.31689608e-01f, 2.14987114e-01f, 2.89605968e-02f, -1.39598384e-01f, 6.41326979e-02f, 1.60626918e-01f, -9.71003994e-02f, -2.17067897e-01f, 3.17748301e-02f, -3.52964625e-02f, -1.24138938e-02f, -2.16624010e-02f, -2.75684506e-01f, 3.34451079e-01f, 1.19726241e-01f, 1.19606871e-02f, -1.14145130e-01f, -3.64775509e-01f, 2.38433897e-01f, -3.06522340e-01f, 1.25795633e-01f, 1.23800142e-02f, 2.88829267e-01f, -3.44113633e-02f, -1.40534872e-02f, 3.17367800e-02f, 2.27210000e-01f, 1.60905659e-01f, 1.34266064e-01f, 2.44911194e-01f, -6.78280219e-02f, 1.50088444e-01f, -1.99202029e-03f, -9.57859457e-02f, -1.60807520e-01f, -1.58555642e-01f, -1.17577270e-01f, -1.41873270e-01f, 4.59010415e-02f, -4.81944345e-02f, -2.17148125e-01f, -2.86124259e-01f, -3.37137610e-01f, -3.07217706e-03f, 1.64471045e-01f, 8.06510597e-02f, -2.18292981e-01f, -1.13880031e-01f, 2.07458138e-02f, 2.31422991e-01f, 5.40233403e-02f, -3.23546469e-01f, -2.66552661e-02f, 8.93139467e-02f, -1.38040900e-01f, 1.26772270e-01f, -5.85638778e-03f, -1.10996716e-01f, -2.86478866e-02f, -2.01297462e-01f, 1.58416778e-01f },
  { -1.74841732e-01f, 7.52165727e-03f, -1.16491474e-01f, -4.99152631e-01f, -2.42883369e-01f, -1.25465766e-01f, 8.15363526e-02f, -3.20119441e-01f, -2.89660603e-01f, 3.86298401e-03f, 8.00438374e-02f, 1.38914585e-02f, 1.97368354e-01f, -5.74847236e-02f, -2.16980428e-01f, -1.74309716e-01f, 3.77922133e-02f, -5.42987697e-02f, 2.36462027e-01f, 4.52661216e-02f, -7.81008787e-03f, 1.12912610e-01f, -3.19184028e-02f, -1.59007803e-01f, -1.92018479e-01f, -2.37445921e-01f, 6.07815199e-02f, -3.11032850e-02f, 2.97909919e-02f, -7.69079626e-02f, -1.99690446e-01f, 6.32603616e-02f, 7.65182227e-02f, -8.37273151e-02f, 3.42403650e-02f, 2.98444405e-02f, -5.99532545e-01f, -1.96282744e-01f, -1.38219059e-01f, -3.06605190e-01f, 5.77077083e-02f, -6.74616266e-03f, -9.55658779e-02f, 1.40745074e-01f, -3.58519524e-01f, 2.10266232e-01f, 1.55876175e-01f, -1.83782265e-01f, 1.11320307e-02f, -2.08442658e-01f, -2.11600184e-01f, 1.26134045e-03f, -3.53324503e-01f, 4.91299815e-02f, -6.02042899e-02f, 1.52349457e-01f, -3.86366174e-02f, 8.77165515e-03f, -6.69688359e-02f, -5.23732662e-01f, -2.06425823e-02f, -1.68756321e-01f, 2.60882556e-01f, -7.79090077e-02f, -3.33158523e-02f, -2.24337056e-02f, -8.31149369e-02f, -1.60537120e-02f, -2.35420130e-02f, -2.25410312e-01f, -1.71362370e-01f, -2.06042267e-02f, -9.44964141e-02f, -5.72102666e-02f, 5.79552762e-02f, -1.88781396e-02f, -2.70464849e-02f, 2.62703169e-02f, -9.47964042e-02f, 1.51077211e-01f, 1.11415043e-01f, -1.06735177e-01f, -3.39010060e-01f, -1.89089641e-01f, -6.01901747e-02f, -2.12125152e-01f, -7.53530264e-02f, 8.50707442e-02f, -2.73368746e-01f, 9.38001797e-02f, -7.47324899e-03f, 2.88678706e-02f, 1.63429137e-02f, -2.67926425e-01f, 2.00877339e-01f, -9.63507220e-02f, -1.15452453e-01f, -2.13291943e-02f, -6.75243139e-02f, -2.91424841e-01f, 8.63159597e-02f, 1.95209205e-01f, -1.22752354e-01f, -3.82424921e-01f, -1.09958053e-01f, 1.35456789e-02f, 1.39648527e-01f, -1.31803766e-01f, -6.05431460e-02f, -9.98257473e-02f, 1.06644735e-01f, 2.73602828e-02f, 1.79866366e-02f, -1.11867800e-01f, -2.49971017e-01f, -1.99710540e-02f, -4.64221165e-02f, -6.82089105e-02f, 2.36785233e-01f, 8.59672055e-02f, 1.04650036e-01f, 9.86628011e-02f, 5.78960776e-02f, -1.22112796e-01f, -8.04520920e-02f, -1.10032961e-01f, 3.09633613e-02f, -3.73647436e-02f, 9.26735066e-03f, -1.57049634e-02f, -2.24255458e-01f, -1.54151488e-02f, -1.30586296e-01f, 8.97846073e-02f, -9.86493453e-02f, -3.69725414e-02f, -1.21011227e-01f, -7.90649801e-02f, 5.66889439e-03f, 3.95087637e-02f, -8.71094987e-02f, -1.52835816e-01f, -1.31122302e-02f, 1.26170078e-02f, -2.31185570e-01f, 8.59495327e-02f, 8.21450129e-02f, 2.17165407e-02f, -2.74796248e-03f, 9.44218189e-02f, -6.36600852e-02f, 7.16165081e-02f, -2.89112572e-02f, 2.12840084e-02f, -1.77395508e-01f, 6.17014943e-03f, 5.25523983e-02f, 7.97576234e-02f, -1.70534551e-02f, -3.50178629e-01f, -3.95378917e-02f, -1.23690158e-01f, -6.81546852e-02f, 3.74544524e-02f, -6.68075383e-02f, -3.92613150e-02f, -4.79794890e-02f, -1.52729079e-01f, -5.69518395e-02f, -1.67466596e-01f, 1.07272603e-01f, -1.07475430e-01f, 2.12666392e-02f, -1.14641964e-01f, 2.23750234e-01f, 6.23829775e-02f, 1.73359483e-01f, -7.39549566e-03f, -2.28685185e-01f, -6.73834095e-03f, 1.40658841e-01f, -5.20896092e-02f, -1.16772287e-01f, -8.73373896e-02f, 8.78116488e-02f, -8.07597712e-02f, -1.97164506e-01f, 4.28731255e-02f, -3.28199118e-01f, 9.95335868e-04f, -4.08706851e-02f, 7.59688690e-02f, -1.08417496e-01f, -1.53908700e-01f, 3.95185739e-01f, -9.67047513e-02f, 7.77740497e-03f, -4.59774956e-02f, -8.35768878e-02f, -2.25221395e-01f, -3.26533802e-02f, -1.07405290e-01f, 3.18597406e-02f, -6.42924905e-02f, -1.32792443e-01f, -1.86471306e-02f, -9.76737067e-02f, -2.84383614e-02f, -6.54945672e-02f, -6.66472539e-02f, 4.21580523e-02f, 5.25613725e-02f, -1.24194091e-02f, 6.55873865e-02f, 1.08980723e-01f, 2.85233576e-02f, 2.54725292e-02f, -8.59377235e-02f, 5.80478162e-02f, 2.24601780e-03f, -1.91258322e-02f, 7.72777051e-02f, -7.97013715e-02f, -3.44596580e-02f, -3.54349539e-02f, -8.09440538e-02f, 2.11521145e-02f, 1.61938779e-02f, -9.80092213e-03f, -4.34780121e-02f, -8.33870620e-02f, -9.06025246e-03f, 9.37601328e-02f, 5.46117611e-02f, 9.05973092e-03f, 6.18415363e-02f, 1.14370301e-01f, -4.19384129e-02f, -3.98489879e-03f, -2.33443710e-03f, 4.59085889e-02f, -6.65392280e-02f, 6.60135746e-02f, -2.31461730e-02f, -5.66477468e-03f, -6.82802200e-02f, -1.99070722e-02f, -1.30863041e-01f, 5.56185991e-02f, 3.76853868e-02f, 1.32579595e-01f, -3.52756865e-02f, 1.32571936e-01f, -7.52448738e-02f, 1.10300541e-01f, -7.30645508e-02f, 3.74237858e-02f, 1.01093434e-01f, -3.81374732e-02f, 1.06590129e-01f, 1.13352193e-02f, 2.81326519e-03f, -2.63088867e-02f, -1.16928250e-01f, 3.63524333e-02f, 7.91357383e-02f, 6.02245852e-02f, 3.38941626e-02f, -1.08259603e-01f, 4.07120548e-02f, -1.14430245e-02f, 7.59838745e-02f, 4.24199831e-03f, -1.26341265e-02f, 1.90914012e-02f, -7.19451085e-02f, -5.44387922e-02f, -6.22647256e-02f, -5.91961853e-02f, 2.39856001e-02f, -5.73193133e-02f, 6.71862662e-02f, -5.73849957e-03f, 2.62470748e-02f, 1.21635757e-01f, 4.44744118e-02f, -3.30524817e-02f, -4.67345491e-02f, 4.07583639e-02f, 5.14584891e-02f, 1.23398891e-03f, -1.53505728e-01f, -2.13562138e-02f, 3.47101800e-02f, -1.20819388e-02f, 4.75123227e-02f, -5.77447824e-02f, 7.76535496e-02f, -6.68504313e-02f, 2.03050561e-02f, -3.37417535e-02f, -9.14550945e-02f, -1.13370664e-01f, -4.76511359e-01f, -1.08628415e-01f, -1.42610401e-01f, -1.57820165e-01f, -2.58335084e-01f, -1.11764176e-02f, -4.43150476e-02f, 2.21961588e-01f, 1.45733625e-01f, 9.81784612e-02f, -1.08357698e-01f, -2.24471405e-01f, -4.48105261e-02f, -1.62611425e-01f, -2.10897058e-01f, 5.19933961e-02f, -1.49084806e-01f, -7.82882608e-03f, 1.27266228e-01f, 1.23553693e-01f, -9.30203721e-02f, 2.59816051e-02f, -4.43328172e-02f, 1.60389803e-02f, 4.77831736e-02f, 1.86979640e-02f, -8.06143209e-02f, -1.50940835e-01f, -1.83298364e-01f, 2.28886362e-02f, 8.80065039e-02f, -1.48151591e-01f, -1.48588330e-01f, -2.05526933e-01f, -2.54101250e-02f, -7.56768882e-02f, 1.12515977e-02f, -2.73949772e-01f, -1.04430385e-01f, 1.32631332e-01f, -2.29683500e-02f, -4.01838720e-01f, 4.79137376e-02f, 2.93393612e-01f, -6.59462586e-02f, -1.84247252e-02f, 3.38922217e-02f, -1.74431086e-01f, -7.14434683e-03f, -1.42326802e-01f, -1.88898697e-01f, -1.21955402e-01f, 6.35166541e-02f, -6.53404295e-02f, 1.84106722e-01f, -8.95127133e-02f, -4.32795793e-01f, -3.38085033e-02f, -1.46074846e-01f, 1.26513705e-01f, -1.57108784e-01f, -1.53852701e-01f, -3.69073227e-02f, 2.45504845e-02f, 1.73615757e-02f, -5.59266508e-02f, -9.79962349e-02f, -3.18287872e-02f, -3.65606189e-01f, -1.77416369e-01f, -1.37793109e-01f, 2.27308702e-02f, -7.68677816e-02f, 2.17935517e-01f, -6.83666095e-02f, -1.68119475e-01f, 1.19943008e-01f, 7.82414675e-02f, -1.22274555e-01f, -1.21332332e-01f, -1.82671338e-01f, -1.08442411e-01f, -4.32627276e-02f, -1.37313187e-01f, -4.84434068e-02f, -1.54169977e-01f, -2.47138087e-02f, 7.32185785e-03f, 1.38705537e-01f, 2.83955093e-02f, 5.69988005e-02f, -2.59057488e-02f, -1.59930900e-01f, -7.70876110e-02f, -1.17034279e-01f, -9.81488451e-02f, -7.66858980e-02f },
  { 9.86463428e-02f, -5.15639745e-02f, 1.09975472e-01f, -2.76070237e-01f, 2.17334684e-02f, 1.12022072e-01f, -1.10254981e-01f, -2.81806827e-01f, -9.67529882e-03f, -8.13054666e-02f, 2.89330304e-01f, -6.29910901e-02f, -7.00580180e-02f, -1.64882556e-01f, -1.76218376e-01f, -3.16176238e-03f, 1.64625242e-01f, -4.84095514e-02f, 1.24546826e-01f, -4.43805531e-02f, 1.65741563e-01f, -1.88680798e-01f, -4.28045213e-01f, -5.08451343e-01f, -8.06014761e-02f, -7.68131390e-02f, 3.14673543e-01f, -1.48230523e-01f, -2.93565780e-01f, 1.44523636e-01f, -8.53391811e-02f, -9.66658518e-02f, -2.17239708e-01f, -1.07949935e-01f, -2.97389179e-01f, 5.11154011e-02f, -1.40749440e-01f, -1.58986568e-01f, -1.15655072e-01f, -3.45110372e-02f, -1.48449361e-01f, -1.16123646e-01f, -1.39802158e-01f, -3.20406765e-01f, -1.65440246e-01f, 2.23259032e-01f, 3.17318775e-02f, -3.04787129e-01f, -8.08622763e-02f, -2.77523398e-01f, 3.55463140e-02f, 1.51202798e-01f, 4.17811833e-02f, -1.66965574e-02f, -3.49534571e-01f, 1.71053797e-01f, -1.07666284e-01f, 1.56869609e-02f, 3.26139033e-02f, -1.02768764e-01f, -7.90534765e-02f, -1.36135787e-01f, -6.13363867e-04f, 1.89711526e-01f, -3.85447927e-02f, 9.53448936e-03f, 8.75203088e-02f, 2.14686748e-02f, -8.54748935e-02f, -2.14594096e-01f, -5.38484491e-02f, 2.67044157e-01f, 6.95568649e-03f, 5.99837899e-02f, 2.91320354e-01f, 1.69755101e-01f, -3.60860735e-01f, -9.70537961e-02f, 2.80127794e-01f, 2.73906421e-02f, -1.61549196e-01f, 4.15400453e-02f, 7.54435584e-02f, -7.51096010e-02f, -1.98099360e-01f, -8.10092166e-02f, 5.72663434e-02f, 1.00108616e-01f, -1.76261477e-02f, -1.27444968e-01f, -1.17718510e-01f, 1.19616510e-02f, -4.48973864e-01f, -8.84982478e-03f, 6.88356236e-02f, 2.79815979e-02f, 4.49351445e-02f, -2.41656139e-01f, 3.15273143e-02f, -5.52298315e-02f, 2.55654398e-02f, 3.50407697e-02f, 1.09185882e-01f, -1.86106339e-01f, -5.26069291e-02f, 1.74436346e-01f, -7.61581659e-02f, -2.09017590e-01f, 3.81411836e-02f, 6.87377825e-02f, 1.68011457e-01f, -2.32669204e-01f, -1.48311988e-01f, -1.23979986e-01f, -3.32634747e-01f, -5.54678217e-02f, -5.00522647e-03f, 7.89836571e-02f, 1.90892681e-01f, 1.95295513e-01f, 4.41791601e-02f, -1.48463920e-01f, -3.51339310e-01f, -2.12318987e-01f, 1.21708013e-01f, -1.12683237e-01f, 2.53887773e-01f, 1.02231763e-01f, 5.50463721e-02f, 1.64392397e-01f, -1.39033586e-01f, -2.43864700e-01f, -1.93188593e-01f, -1.18620805e-01f, -4.20887083e-01f, 2.10967377e-01f, 2.19549015e-02f, 3.89451371e-03f, -8.97985399e-02f, -1.65887415e-01f, -1.29487082e-01f, -1.63661793e-01f, -2.02366821e-02f, -3.27532679e-01f, -5.62411547e-02f, 9.78881679e-03f, 8.65995809e-02f, -1.37900025e-01f, 2.09313706e-02f, -2.31962666e-01f, 1.09444782e-01f, -3.84405330e-02f, 5.96082322e-02f, -3.74362543e-02f, -1.32753372e-01f, -5.59929609e-02f, -7.92079121e-02f, 5.48380837e-02f, -2.79401094e-01f, 2.22676340e-03f, 1.09972283e-01f, -4.41093231e-03f, -8.27963650e-02f, 2.27121308e-01f, -2.20610008e-01f, 2.40458889e-04f, 2.17417955e-01f, -8.67851302e-02f, -1.02706768e-01f, -2.35638484e-01f, -4.68751527e-02f, 3.57457817e-01f, -1.27196282e-01f, -6.53491169e-02f, 1.28763452e-01f, 1.41241476e-01f, -4.46162462e-01f, -1.10716343e-01f, 1.61291942e-01f, -2.88611889e-01f, -1.91466492e-02f, -2.20219508e-01f, 8.43231156e-02f, 3.75382751e-02f, 2.16270816e-02f, -8.85578692e-02f, 2.44355515e-01f, 2.12407738e-01f, -5.42555489e-02f, -7.96792805e-02f, -2.85596550e-01f, 1.20910555e-01f, -2.19511256e-01f, -1.11229330e-01f, 2.80096531e-01f, 7.91476145e-02f, 1.86239824e-01f, -9.35459733e-02f, 1.07673649e-02f, -1.48440152e-01f, 3.88960168e-02f, 3.68951894e-02f, -7.56889880e-02f, 1.04568854e-01f, -1.30236953e-01f, -1.25248790e-01f, 9.26951319e-03f, -1.44063577e-01f, -9.09447595e-02f, 6.36180863e-02f, 1.37487486e-01f, 4.95909378e-02f, 1.92609988e-02f, -5.01705036e-02f, -7.50580505e-02f, 2.93713417e-02f, 5.80608957e-02f, -5.98025508e-02f, -1.14625897e-02f, -9.65691209e-02f, -6.12339489e-02f, -4.31665406e-02f, 1.10285752e-01f, -9.71436650e-02f, -7.52582774e-02f, -4.43008430e-02f, 6.90604821e-02f, -1.31694138e-01f, -2.34995466e-02f, -1.15629628e-01f, -4.43035066e-02f, 3.45531702e-02f, -5.30968830e-02f, -1.01369597e-01f, 2.59014726e-01f, -4.19629104e-02f, 3.24277095e-02f, -9.39034112e-03f, -4.05418351e-02f, 1.08581409e-01f, 1.64820433e-01f, 1.58418283e-01f, 1.80261601e-02f, 4.24132422e-02f, 1.42366588e-01f, 1.86610650e-02f, -6.17237724e-02f, 7.90104270e-02f, 3.58726531e-02f, 1.00594662e-01f, -3.43778692e-02f, -3.01639922e-02f, -5.64999133e-02f, -4.68394794e-02f, 5.03995419e-02f, -1.30771488e-01f, -3.76083441e-02f, -6.96355924e-02f, -2.11996660e-02f, -8.39224737e-03f, -1.04021039e-02f, 8.41751471e-02f, -4.04228345e-02f, -2.68820506e-02f, 5.78001887e-02f, 8.70513730e-03f, -1.09081209e-01f, -1.14459954e-01f, 4.18067500e-02f, -9.55880210e-02f, -2.33513862e-01f, -7.67646804e-02f, 3.13603692e-02f, -5.77164628e-02f, 9.75374058e-02f, 2.82165240e-02f, -4.23052013e-02f, -5.31236902e-02f, -8.05661753e-02f, -4.27663475e-02f, -9.96418223e-02f, -1.04044192e-01f, -1.15784727e-01f, -7.15547102e-03f, 1.74045801e-01f, 1.35652453e-01f, 6.61617517e-02f, 9.30903852e-02f, 1.18291713e-01f, 8.34156871e-02f, -3.11041251e-02f, -3.07537522e-02f, -7.20539270e-03f, -3.16398069e-02f, -1.92389134e-02f, -4.38867845e-02f, 1.00316688e-01f, -5.54573312e-02f, -8.31008255e-02f, 2.76489891e-02f, 1.44923359e-01f, 3.64691392e-02f, 2.58158475e-01f, -5.67278862e-02f, -1.39988810e-01f, -2.29988769e-02f, -1.12774707e-01f, -2.67830759e-01f, 1.31612211e-01f, -1.61019191e-01f, 2.91904330e-01f, -8.23924169e-02f, -9.52871218e-02f, -2.52776563e-01f, -1.42879277e-01f, -8.73381644e-02f, 9.90916714e-02f, -4.32078838e-02f, 7.74530098e-02f, 4.36900295e-02f, 1.05185375e-01f, -2.23455712e-01f, -2.81848550e-01f, -1.62884712e-01f, -1.72067776e-01f, -9.50905755e-02f, 2.26122424e-01f, 1.51177213e-01f, 6.71114698e-02f, 2.46884450e-01f, -1.38116047e-01f, -1.53604478e-01f, -2.20282272e-01f, -1.14019528e-01f, -4.33209896e-01f, 7.06208274e-02f, -9.08965170e-02f, -1.45331964e-01f, -3.26286927e-02f, 1.74687400e-01f, -9.65890437e-02f, -1.28962636e-01f, -1.40108451e-01f, -1.96839944e-01f, -4.64742333e-02f, 5.01663238e-02f, 1.31709486e-01f, -1.16184905e-01f, -3.18242162e-02f, -2.21300304e-01f, 6.63112774e-02f, 3.53192277e-02f, 7.70984590e-02f, -1.01528779e-01f, -2.24270627e-01f, 1.40003031e-02f, -2.01917320e-01f, -7.83053227e-03f, -7.32609406e-02f, 1.01996124e-01f, 2.74846777e-02f, -1.14137612e-01f, 7.72472396e-02f, 4.33434732e-02f, -1.11994430e-01f, -2.24761721e-02f, 2.10805982e-01f, -1.40244747e-02f, -3.46088223e-02f, 2.82838531e-02f, -7.85149634e-03f, 3.01105261e-01f, -1.49513960e-01f, -5.95440120e-02f, 1.42501280e-01f, 2.42665678e-01f, -3.77892375e-01f, 9.86146275e-03f, 5.62781058e-02f, -1.54906750e-01f, -1.58050079e-02f, 5.07821515e-02f, 7.74194524e-02f, 6.50736988e-02f, 1.10686361e-03f, -1.53453067e-01f, 3.17025065e-01f, 6.75286651e-02f, -2.36060601e-02f, -8.51521939e-02f, 3.21683735e-02f, 1.45370811e-01f, -1.14843376e-01f, -8.45883638e-02f, 3.10362548e-01f, -4.84997705e-02f, 1.28106296e-01f, -1.65880233e-01f, 3.47119868e-02f, -9.65993293e-03f },
  { 1.21179976e-01f, -1.64081126e-01f, -1.80190295e-01f, 1.15315497e-01f, -6.08135462e-02f, -3.40871245e-01f, -8.22131485e-02f, 5.63226268e-02f, -1.34485066e-01f, 1.02941804e-01f, 4.18757424e-02f, -3.96521129e-02f, -2.96306312e-02f, -1.92842126e-01f, -2.14482285e-02f, -1.27075845e-02f, -1.24404304e-01f, -2.89166063e-01f, -1.73413813e-01f, -9.71339941e-02f, -1.03965081e-01f, -1.06180772e-01f, -5.08293174e-02f, -2.15344224e-02f, -1.48458555e-01f, 9.83028859e-02f, 1.03799000e-01f, -4.71157372e-01f, -3.32133591e-01f, 4.05800305e-02f, 2.47161314e-02f, -5.91378054e-03f, 5.63053265e-02f, -1.63910631e-02f, -6.70354664e-02f, -3.36460173e-02f, 5.74877039e-02f, 1.73081517e-01f, 5.33222184e-02f, 5.09005459e-03f, -4.99310680e-02f, 8.57037380e-02f, 4.68018986e-02f, -5.76136410e-02f, 5.28938323e-03f, -1.81824476e-01f, -1.65478438e-02f, -1.92149863e-01f, -1.13317877e-01f, -6.07758388e-02f, 1.88630879e-01f, -1.86273441e-01f, 2.11569995e-01f, 8.25584754e-02f, -2.14265063e-01f, 1.44359529e-01f, 1.13238171e-01f, -5.27639389e-02f, 8.91165137e-02f, -2.47876748e-01f, 9.59867798e-03f, -6.08879440e-02f, 5.31175248e-02f, -1.95930615e-01f, -8.84767920e-02f, -2.34734848e-01f, -1.80928797e-01f, -1.73546523e-01f, -4.53943722e-02f, 2.22683549e-02f, 1.53219581e-01f, -4.49422337e-02f, -6.27704635e-02f, 6.99073151e-02f, -1.46822140e-01f, -5.26764877e-02f, 1.87511802e-01f, 3.91917266e-02f, -2.40215018e-01f, 2.90077832e-02f, -1.23025365e-01f, 1.84306893e-02f, 8.67929161e-02f, 9.74651724e-02f, -4.02336150e-01f, -2.22371235e-01f, 2.27818713e-02f, -2.44800195e-01f, -2.89206475e-01f, -5.66698126e-02f, 1.10944156e-02f, -2.29109749e-02f, -4.47086692e-02f, 3.25258106e-01f, 8.62991810e-03f, -1.27083614e-01f, 1.16866283e-01f, -4.10621315e-02f, -2.09926397e-01f, -1.11594476e-01f, 1.48065597e-01f, -5.49616702e-02f, 3.88722867e-02f, 2.24743888e-01f, -7.07792342e-02f, -3.09658051e-01f, 8.18369836e-02f, 1.00090504e-01f, 1.60169229e-01f, 2.23878890e-01f, -6.33751552e-05f, 2.92535312e-02f, 1.24930605e-01f, -1.88724652e-01f, -8.46808180e-02f, -4.99778874e-02f, -8.06137919e-02f, -1.99347690e-01f, -9.57382098e-02f, -1.71318442e-01f, -1.44604445e-01f, -5.48322266e-03f, -3.12557891e-02f, 3.32710817e-02f, -1.03445321e-01f, 7.52196461e-02f, 1.27410039e-01f, -1.57681659e-01f, -2.06176534e-01f, 4.04763743e-02f, -1.27232447e-01f, -3.51570584e-02f, 1.46202594e-01f, 7.05143139e-02f, 2.16099128e-01f, -8.62867832e-02f, -2.58351248e-02f, 8.10748190e-02f, 1.11471742e-01f, 5.05380742e-02f, -8.41338560e-02f, 4.36412245e-02f, 1.78818449e-01f, 1.15115941e-01f, -1.25630453e-01f, 3.63847450e-03f, -7.10565820e-02f, 1.06170826e-01f, -1.43634170e-01f, -1.36425644e-01f, 1.18015498e-01f, 4.76338621e-03f, 1.81181446e-01f, 3.67048196e-02f, -1.53286055e-01f, 1.37859553e-01f, 1.69790417e-01f, 3.53020765e-02f, 5.45543917e-02f, 6.40631914e-02f, 2.22849175e-01f, -1.92747355e-01f, 1.99891314e-01f, -3.49887237e-02f, -1.35497272e-01f, -1.29671633e-01f, -1.18473902e-01f, 6.18039742e-02f, 7.56707741e-03f, 6.76291659e-02f, 8.20946768e-02f, -8.29816014e-02f, 2.25467756e-01f, -2.21003201e-02f, -7.73841217e-02f, 1.27823994e-01f, 1.08046360e-01f, 5.04300557e-02f, -1.58830881e-01f, 1.07618488e-01f, -1.31530061e-01f, 7.03046173e-02f, 1.55623362e-03f, 9.76458341e-02f, -3.67194355e-01f, -7.61051998e-02f, 9.96907353e-02f, 1.37423858e-01f, -6.09171018e-02f, 1.75270904e-02f, 9.75379720e-02f, 9.64421034e-02f, 5.86185716e-02f, 2.17067733e-01f, 9.62786898e-02f, -2.18727142e-01f, 5.46505721e-03f, 3.57378945e-02f, -1.37771554e-02f, -1.11355651e-02f, -1.35285705e-02f, 1.72461942e-02f, -3.95959541e-02f, 9.77370422e-03f, 1.12537006e-02f, 2.08391786e-01f, -2.31604762e-02f, 3.60712735e-03f, -1.26649011e-02f, -9.22263265e-02f, 3.36840516e-03f, 1.48950174e-01f, -2.62481421e-02f, -8.66964683e-02f, 1.28264278e-01f, -9.30553395e-03f, 5.67280501e-03f, 7.91699737e-02f, -2.51439996e-02f, -2.92485356e-02f, -6.10968396e-02f, 2.74131596e-02f, 5.19636795e-02f, -1.30343407e-01f, -7.01583177e-02f, 1.08310200e-01f, 4.85752262e-02f, -3.94617394e-02f, 3.65820364e-03f, -7.28038475e-02f, 2.22492721e-02f, -4.95565385e-02f, 5.66599593e-02f, -1.33396750e-02f, 5.31011485e-02f, -1.41527727e-01f, 6.73608258e-02f, 4.77200653e-03f, 1.64794188e-03f, -5.74010834e-02f, -4.04641740e-02f, -1.36937916e-01f, -3.20053697e-02f, -8.53052735e-03f, 1.20229103e-01f, -1.95703227e-02f, 1.18772667e-02f, -3.03070620e-02f, -9.70382243e-03f, 2.04682592e-02f, -4.01663780e-02f, -8.25431421e-02f, -5.89981005e-02f, 3.78625207e-02f, -8.72803479e-03f, 6.58919103e-03f, 1.66505035e-02f, -3.30115966e-02f, -1.39036551e-02f, -7.66830938e-03f, -8.04393664e-02f, -2.13217828e-02f, -3.32891382e-02f, 1.10457793e-01f, -6.04959503e-02f, 7.78830424e-02f, 4.32757847e-02f, 9.82668437e-03f, 8.24395418e-02f, -4.05097678e-02f, -3.85877473e-04f, 4.89653945e-02f, -1.50972465e-02f, 3.94865349e-02f, -1.11345015e-02f, -3.34722549e-02f, 5.59498146e-02f, -3.47411856e-02f, 1.07729649e-02f, 7.84511492e-02f, -3.36528872e-03f, -3.62170599e-02f, -4.19393405e-02f, -1.60652809e-02f, -3.96763124e-02f, -3.90347913e-02f, 9.10558272e-03f, 6.35397583e-02f, 6.16097241e-04f, 1.03546409e-02f, -7.74195790e-02f, -2.11174890e-01f, 5.03445528e-02f, -1.44307360e-01f, 2.08938252e-02f, 5.07402644e-02f, -5.87920882e-02f, -1.14220590e-03f, -1.97048523e-02f, -1.24274947e-01f, -3.52937616e-02f, -1.49355218e-01f, -1.05652533e-01f, 7.64198527e-02f, -1.62904084e-01f, -1.10220499e-01f, -3.03021818e-02f, 7.92424455e-02f, -5.83749749e-02f, -3.59859802e-02f, 1.37093246e-01f, -9.28356871e-02f, 1.86312482e-01f, 2.38432921e-02f, -1.24672338e-01f, 1.40128031e-01f, -8.29996020e-02f, -2.54166216e-01f, -1.38589099e-01f, -6.45697862e-02f, -1.27561077e-01f, -1.43363625e-01f, 3.12606543e-02f, -1.38255134e-01f, -1.31170467e-01f, 6.76112995e-02f, 9.14837345e-02f, -3.62751096e-01f, -4.12060857e-01f, -1.50784943e-02f, 4.19556238e-02f, 3.47075313e-02f, 4.52473089e-02f, 6.70720711e-02f, 1.76315531e-02f, -2.34931372e-02f, -2.57945329e-01f, 1.70353483e-02f, 2.91991737e-02f, -1.24977440e-01f, -3.17644421e-03f, -5.59002683e-02f, -4.70939837e-02f, 3.37503217e-02f, -1.07760437e-01f, 7.14093447e-02f, 7.42442012e-02f, 1.24572152e-02f, -2.94085797e-02f, -1.47950485e-01f, 1.21471182e-01f, -1.81466535e-01f, 6.30973279e-02f, 5.97944483e-02f, -5.69014326e-02f, 2.01733381e-01f, 1.14988267e-01f, -4.79229726e-02f, 3.34131010e-02f, -1.13992922e-01f, 1.34712547e-01f, -1.97594240e-01f, 3.92399505e-02f, -6.81505203e-02f, 2.13087182e-02f, -2.75798619e-01f, -2.27033317e-01f, -1.63964853e-01f, 1.04018912e-01f, -1.48591753e-02f, 7.62928873e-02f, -3.71367075e-02f, 8.97189155e-02f, -7.63020515e-02f, -1.98406756e-01f, 7.01597251e-04f, -1.79321934e-02f, 1.24547616e-01f, -8.24136063e-02f, -5.57847507e-02f, -1.82706654e-01f, 7.48442337e-02f, -1.35554597e-02f, 7.40715722e-03f, 1.21922214e-02f, -7.92511329e-02f, 1.66455358e-02f, 5.46170138e-02f, -1.77035183e-01f, -4.06136215e-02f, 4.49318737e-02f, 1.21137664e-01f, -5.09837568e-02f, 2.43982941e-01f, -8.72555748e-02f, -6.97726458e-02f, 6.20409884e-02f, 1.21438220e-01f, -5.58256581e-02f, -5.23892529e-02f },
  { -1.80494249e-01f, -3.87980700e-01f, -1.57031059e-01f, -6.50615469e-02f, -7.06240609e-02f, -3.13586086e-01f, 5.32036833e-03f, 1.73670836e-02f, -1.30049884e-01f, -1.23420820e-01f, -1.91321690e-02f, -1.28551275e-01f, 4.73647416e-02f, -4.67708707e-01f, -1.28463358e-01f, 1.66542381e-01f, -6.86125755e-02f, -1.09762652e-02f, -1.16111293e-01f, -1.70329824e-01f, -3.13348919e-01f, -3.83614562e-02f, 3.97904916e-03f, -5.67428842e-02f, 2.04633668e-01f, -1.73010588e-01f, -1.57680258e-01f, -1.26577273e-01f, 7.06386715e-02f, 1.39885262e-01f, -2.83581287e-01f, 1.53286094e-02f, -1.80152416e-01f, 9.28140804e-02f, 9.56731960e-02f, -2.08505113e-02f, -8.38193670e-02f, -2.21749976e-01f, -6.67652860e-02f, -3.41128647e-01f, -3.32031935e-01f, -1.45290354e-02f, -1.97891384e-01f, -2.63889972e-02f, 2.70691007e-01f, -1.83804169e-01f, -2.90959209e-01f, -1.71725705e-01f, -1.56528920e-01f, 1.62060168e-02f, -1.02427840e-01f, 2.00425293e-02f, -2.04131275e-01f, -9.02231783e-02f, 1.44565672e-01f, 1.50094936e-02f, -2.05631293e-02f, 3.98827232e-02f, 9.78353620e-02f, -1.84953541e-01f, -1.29666850e-01f, -5.14357910e-02f, 1.22555032e-01f, -4.77607772e-02f, -1.86525062e-01f, -2.51362145e-01f, -1.84527636e-01f, -2.23971143e-01f, -2.88162678e-01f, -2.18522847e-02f, 4.22230028e-02f, -1.05048135e-01f, -1.03073172e-01f, -1.26620531e-01f, 2.35809535e-01f, -4.06578323e-03f, 2.95544863e-01f, 6.80174604e-02f, -2.43886918e-01f, -9.19845700e-02f, -8.05093125e-02f, -2.76455522e-01f, -8.46475065e-02f, -1.01581953e-01f, -1.98205993e-01f, 1.69868186e-01f, -1.15364246e-01f, 5.25107048e-02f, -2.21015275e-01f, -1.80723131e-01f, 1.23976246e-01f, 3.54323164e-02f, 8.38309899e-03f, 3.01137678e-02f, 8.32858682e-02f, -1.57415330e-01f, -1.45161241e-01f, 3.98813784e-02f, 1.16346017e-01f, -2.39613384e-01f, 5.56935892e-02f, -1.50555596e-01f, 1.38837233e-01f, 1.06563069e-01f, 2.32139751e-02f, -9.72936116e-03f, 4.75537740e-02f, 2.17698887e-02f, 1.01525560e-02f, -1.36300087e-01f, -9.16687325e-02f, 7.44313896e-02f, 8.71461928e-02f, -3.06401789e-01f, -1.43639714e-01f, 2.00901791e-01f, -4.29129712e-02f, -6.01677373e-02f, -9.37276855e-02f, -1.02090672e-01f, -1.32630914e-01f, -1.57339334e-01f, -4.33799869e-04f, 5.02534695e-02f, 4.63660471e-02f, -9.92318243e-02f, 6.39442056e-02f, 1.29300142e-02f, -1.16524935e-01f, 1.71151310e-01f, -2.79638439e-01f, 5.19431941e-02f, -4.43717577e-02f, 1.30817369e-01f, 6.16339818e-02f, -2.09098667e-01f, -1.47433072e-01f, -1.75982997e-01f, 3.80659625e-02f, 2.22310573e-01f, 5.94382510e-02f, -1.13319710e-01f, 3.96220013e-02f, -1.02240279e-01f, 4.96321470e-02f, 2.46201409e-03f, -1.16189584e-01f, 1.40100121e-01f, -4.22507338e-02f, -1.13266684e-01f, -6.15915321e-02f, -9.49480012e-02f, 4.43229936e-02f, -1.34501318e-02f, 1.02086477e-01f, 4.05317359e-02f, 6.94830790e-02f, 8.23359862e-02f, 1.77325517e-01f, 1.13588139e-01f, -9.77040380e-02f, -3.21632415e-01f, 3.20668146e-02f, -2.31796764e-02f, -1.62906796e-01f, -2.36844897e-01f, -5.81948496e-02f, -1.22806609e-01f, -2.15225831e-01f, 2.29320512e-03f, -5.72074354e-02f, -2.27501824e-01f, -1.35595389e-02f, -6.98114559e-02f, 9.58463401e-02f, -4.52260152e-02f, 2.17726782e-01f, 1.87272072e-01f, -2.28981882e-01f, 7.93117136e-02f, -4.66111973e-02f, 1.69226155e-02f, -9.35063958e-02f, -7.28226174e-03f, 6.72572851e-02f, 5.70788374e-03f, -5.35795614e-02f, -2.81642415e-02f, -1.95174366e-01f, -2.15541840e-01f, 1.46472543e-01f, 2.62668103e-01f, -2.73567110e-01f, 5.66419680e-04f, 2.17780694e-01f, -8.47395733e-02f, -1.24646820e-01f, -2.85830140e-01f, 1.19100183e-01f, -1.20818734e-01f, -2.72069406e-02f, 8.65243152e-02f, -1.02561116e-02f, 1.34041220e-01f, -2.16112509e-01f, 5.74889146e-02f, 4.00669686e-02f, -3.04599497e-02f, 7.81007037e-02f, -7.79800341e-02f, -4.38600257e-02f, -1.57545693e-02f, 5.33122085e-02f, 1.42554462e-01f, 9.48439259e-03f, 5.57983592e-02f, -6.68307096e-02f, 8.38371143e-02f, -8.70035812e-02f, 8.60615224e-02f, 1.70802642e-02f, 3.38053070e-02f, 6.79649040e-03f, -1.02017179e-01f, -2.86339410e-02f, -9.54501405e-02f, -1.58517025e-02f, -3.64824338e-03f, 3.35364677e-02f, 1.18561639e-02f, 3.40601467e-02f, 6.00141985e-03f, -7.85813108e-02f, 1.60357896e-02f, 6.38010399e-03f, 5.74368946e-02f, 2.76831686e-02f, 1.34745464e-01f, 1.37854470e-02f, -9.75585822e-03f, 7.27329925e-02f, -2.92486474e-02f, 1.41548626e-02f, -3.46707776e-02f, 3.47659588e-02f, 3.89637053e-02f, -6.02918863e-02f, -6.28789887e-02f, 3.25370878e-02f, 1.57283689e-03f, 7.50515908e-02f, -7.38252103e-02f, -1.01058390e-02f, -1.00134447e-01f, 9.22377110e-02f, -2.75876075e-02f, -4.70479988e-02f, -2.37739203e-03f, 4.08939384e-02f, -5.04862294e-02f, -5.17248102e-02f, 2.98804734e-02f, -8.74570105e-03f, 2.76664719e-02f, -2.51937956e-02f, -3.12098693e-02f, -9.26107988e-02f, -9.80704650e-03f, -8.41176882e-02f, -6.50453791e-02f, 1.48129791e-01f, 1.52228707e-02f, -2.45386902e-02f, 3.15057412e-02f, -2.41403580e-02f, -1.85852684e-02f, -7.91805908e-02f, 3.14306468e-03f, -7.17367008e-02f, -6.16769157e-02f, 4.86479215e-02f, -3.85015197e-02f, 1.06340088e-01f, -9.22370255e-02f, 1.10858399e-03f, -6.56830473e-03f, 5.38006537e-02f, 5.59018962e-02f, -2.21332442e-02f, -3.29236104e-03f, 2.52675079e-02f, 6.41256049e-02f, 1.37793541e-01f, -9.75499749e-02f, 2.46101953e-02f, -6.04098067e-02f, -1.30181640e-01f, 6.63368823e-03f, -1.99745670e-02f, -1.45923942e-01f, -1.01508088e-01f, -1.75539047e-01f, 1.28222033e-01f, -8.27336777e-03f, -4.24652770e-02f, -1.55761763e-01f, -1.20014727e-01f, -1.24751180e-02f, -1.35447845e-01f, -2.31541619e-01f, 1.33236155e-01f, -1.16413236e-01f, 6.03155643e-02f, -2.29113683e-01f, -3.16979699e-02f, 2.46850625e-01f, 1.31465541e-02f, -1.27825767e-01f, -1.48028463e-01f, -2.66769171e-01f, -1.04942672e-01f, -6.06212281e-02f, 1.03458673e-01f, 7.10100383e-02f, 9.05210525e-02f, -8.65764543e-02f, -3.53040844e-02f, 2.99538877e-02f, -3.08643132e-02f, 1.16632618e-01f, -1.80950150e-01f, -1.62095189e-01f, -1.83472797e-01f, 6.08744919e-02f, -4.12150845e-02f, 3.99950929e-02f, -5.55992760e-02f, -7.16238469e-02f, 5.04467450e-02f, -1.31990507e-01f, -1.80253685e-01f, -2.92663097e-01f, -9.54151899e-02f, -8.61828029e-02f, 1.38925374e-01f, -2.40007043e-01f, -2.90352643e-01f, -2.07513601e-01f, -1.29754677e-01f, -2.79644161e-01f, 1.38167396e-01f, -1.58354148e-01f, 7.88622275e-02f, -9.33211446e-02f, 2.22252198e-02f, -7.60788023e-02f, 7.14849308e-02f, 3.92767750e-02f, 7.07056597e-02f, -1.26829311e-01f, -6.20652810e-02f, -6.81954920e-02f, 2.34102402e-02f, 1.54726133e-01f, -4.94917519e-02f, -2.58830637e-01f, -3.06135595e-01f, -4.35263932e-01f, -2.82626212e-01f, 3.65255401e-02f, 4.75441664e-02f, 5.80294207e-02f, 4.29199822e-03f, -1.22938424e-01f, 2.02322766e-01f, -1.28231928e-01f, 7.49905109e-02f, 1.03589542e-01f, -1.76742971e-01f, -8.09391215e-02f, -7.07426518e-02f, -2.87146628e-01f, -2.23086014e-01f, -6.93494156e-02f, -8.80879387e-02f, 1.98207706e-01f, -2.80323867e-02f, 1.20467758e-02f, -2.69817919e-01f, -9.46054757e-02f, 1.56529412e-01f, -5.23794768e-03f, -2.05448791e-02f, 6.95649013e-02f, 1.10041924e-01f, -2.33875826e-01f, -1.54539183e-01f, -1.64436266e-01f, 2.59626955e-01f, -1.56930387e-01f },
  { 1.95014570e-02f, -1.09278463e-01f, -1.37768790e-01f, 2.71401703e-01f, 3.68987024e-02f, -2.70536602e-01f, 2.55186647e-01f, 1.38853118e-01f, 7.69501403e-02f, -1.53024793e-02f, 2.11818561e-01f, -2.21793056e-01f, 2.11085930e-01f, -5.17447069e-02f, 2.38410845e-01f, -2.10780323e-01f, 9.61523280e-02f, -9.29136723e-02f, 9.43092778e-02f, -6.38066009e-02f, 1.20194040e-01f, -1.30202189e-01f, 1.64312005e-01f, 1.28203556e-01f, -3.75878185e-01f, 2.87014544e-01f, -1.14275195e-01f, -1.41840994e-01f, -3.01016599e-01f, -1.42741948e-01f, 5.40155955e-02f, -1.27886459e-01f, 1.20577365e-02f, 2.49792457e-01f, 1.00020006e-01f, -1.17571898e-01f, 3.39176245e-02f, 2.00558111e-01f, 3.68176661e-02f, -1.42559052e-01f, -2.69577727e-02f, 2.90567130e-01f, -1.09492041e-01f, -8.28132257e-02f, 7.15689287e-02f, -6.55580964e-03f, 1.73560396e-01f, -6.15608878e-02f, -2.53581684e-02f, -8.79436135e-02f, 1.56308897e-02f, -2.00104401e-01f, 1.99104890e-01f, 4.04683203e-01f, -4.30093333e-02f, -1.65389217e-02f, -3.15046683e-02f, -1.74650475e-01f, -1.57412142e-01f, 2.48957649e-01f, 1.78736955e-01f, -3.00592761e-02f, -1.71333134e-01f, -1.41166325e-03f, 1.78949937e-01f, 7.68689662e-02f, -5.42844199e-02f, 6.61816970e-02f, 4.67130877e-02f, 2.36382917e-01f, 1.50350809e-01f, 1.30534068e-01f, -9.91810784e-02f, 1.27037764e-01f, -1.81254484e-02f, 3.95282470e-02f, 5.11085317e-02f, -1.22810928e-02f, 2.31516757e-03f, 1.75294459e-01f, 2.24249214e-02f, 5.97420372e-02f, -1.78283319e-01f, 8.32325197e-04f, -1.93327084e-01f, -5.07633314e-02f, 7.13859126e-02f, -8.01772922e-02f, -9.64686945e-02f, 1.05782695e-01f, 1.94972903e-01f, -1.15853675e-01f, -5.02063334e-03f, 9.00110528e-02f, -9.29041505e-02f, -1.16795331e-01f, 3.59679535e-02f, -5.18934168e-02f, -2.73082614e-01f, -1.05343685e-02f, 1.44947041e-02f, -7.23992959e-02f, -7.50691071e-02f, 6.17928989e-02f, -2.56158388e-03f, -4.37453598e-01f, 6.45997703e-01f, 2.09268168e-01f, -6.12403713e-02f, 2.80875921e-01f, -2.05596328e-01f, -2.33744100e-01f, 1.52268067e-01f, -2.66036522e-02f, 1.27922535e-01f, 3.47168520e-02f, -8.67565125e-02f, -2.22235233e-01f, -2.08218340e-02f, -1.99347809e-01f, -1.55947804e-01f, -1.38058618e-01f, 2.43240252e-01f, 2.32515745e-02f, -1.73015222e-01f, 1.36377275e-01f, -9.96594578e-02f, -1.33119106e-01f, -5.12369014e-02f, -1.41042784e-01f, -3.96787040e-02f, -1.11270122e-01f, 2.25365926e-02f, 3.62910867e-01f, 1.24130875e-01f, -1.43076986e-01f, 1.39728948e-01f, 1.79775834e-01f, -7.13685453e-02f, 5.70587590e-02f, 2.59751737e-01f, 2.89785743e-01f, 2.56646037e-01f, 3.47467326e-02f, -3.29812355e-02f, 1.96864352e-01f, 7.57970735e-02f, 1.61637254e-02f, -1.92810893e-02f, -1.79299906e-01f, -1.98278606e-01f, -2.68229805e-02f, 1.58318728e-01f, 4.10977572e-01f, 1.89976150e-03f, 1.21383600e-01f, -8.18872601e-02f, -1.12948224e-01f, -1.34749249e-01f, 3.75861049e-01f, 2.35712439e-01f, -6.34121373e-02f, -3.10179200e-02f, -1.32474855e-01f, 7.46347904e-02f, 8.24365988e-02f, -9.75149125e-02f, 2.03569561e-01f, 4.96028252e-02f, 3.56452018e-01f, 3.00109424e-02f, -4.93657961e-02f, 1.05915152e-01f, 2.82095253e-01f, -2.63128933e-02f, -2.46761292e-02f, 6.93267398e-03f, -9.95494146e-03f, 1.39453774e-02f, 1.77914277e-01f, 1.83553562e-01f, 2.92963646e-02f, -1.92714572e-01f, -6.85435086e-02f, -2.74701446e-01f, 2.32589189e-02f, -1.60993077e-02f, 1.43246710e-01f, 4.30780113e-01f, 1.06468514e-01f, 1.89039618e-01f, -1.99297190e-01f, -5.43615557e-02f, 4.93516885e-02f, -1.85162246e-01f, -5.34601994e-02f, 5.34355380e-02f, -9.97940600e-02f, -1.22683510e-01f, 9.02721584e-02f, 8.48715454e-02f, -1.11600824e-01f, -2.24250313e-02f, 3.83348018e-02f, -8.57447013e-02f, 2.72774160e-01f, -8.89703706e-02f, 1.06034353e-01f, 1.59334674e-01f, -1.28103212e-01f, -1.17638037e-01f, -6.19098209e-02f, -1.05417073e-01f, 5.96968234e-02f, 4.10543755e-02f, -2.87470128e-02f, -4.62707169e-02f, -1.01449952e-01f, 4.64945508e-04f, -1.22850314e-01f, 7.75637925e-02f, -3.65476906e-02f, 1.44398510e-01f, -8.28017201e-03f, 2.03042408e-03f, 1.41258314e-01f, -2.30625551e-02f, 1.40331481e-02f, 2.06401683e-02f, -1.68848559e-02f, -9.38400440e-03f, 2.66963709e-02f, 6.56545758e-02f, 1.29545867e-01f, -4.49093897e-03f, 2.54144077e-03f, -2.26790830e-03f, 4.96743210e-02f, -5.58718294e-02f, 1.67602479e-01f, 1.49918897e-02f, 2.70763077e-02f, -5.41281961e-02f, 1.82863250e-02f, 5.35779707e-02f, -1.35808205e-02f, -9.13399905e-02f, 1.91000417e-01f, -1.22924328e-01f, -1.08258137e-02f, 9.59865227e-02f, -3.47513407e-02f, -3.06430105e-02f, 3.35293971e-02f, -3.98060046e-02f, 3.42779383e-02f, 8.52960348e-02f, 4.70106956e-03f, 1.36635542e-01f, -7.70190135e-02f, 1.81546789e-02f, 4.33552265e-02f, -8.33888650e-02f, -3.60731892e-02f, -8.95853341e-03f, -1.03319190e-01f, -5.50417788e-02f, 1.08023040e-01f, 3.76248769e-02f, 2.43381574e-03f, -1.04108408e-01f, -1.10888340e-01f, 9.89141017e-02f, 8.96462351e-02f, -7.20810145e-02f, 4.87597026e-02f, -5.17396629e-02f, -9.08607468e-02f, 6.09599911e-02f, 9.88767371e-02f, 2.88607758e-02f, -5.45846969e-02f, -1.05981067e-01f, 7.61260837e-02f, -1.59233466e-01f, 5.74365184e-02f, -3.51978093e-02f, 1.42098263e-01f, 1.02668695e-01f, -3.50902900e-02f, 1.63067818e-01f, 9.17860866e-02f, -4.29871455e-02f, -7.10305348e-02f, -5.48646133e-03f, -5.18277809e-02f, -1.04603752e-01f, -8.48610774e-02f, -2.73856055e-03f, -3.15428786e-02f, 3.19469301e-03f, -1.37744859e-01f, -2.13913679e-01f, 1.09665267e-01f, -2.54354347e-02f, -1.44109102e-02f, 3.69438142e-01f, 2.77221829e-01f, -5.42835221e-02f, -2.22242996e-02f, 8.00792649e-02f, -3.21570039e-01f, 1.57152101e-01f, 1.35663196e-01f, 1.24303795e-01f, -1.18849568e-01f, 1.66845247e-01f, -4.75146947e-03f, -2.97973342e-02f, -5.69856130e-02f, 7.89236501e-02f, -1.60779640e-01f, 1.09397635e-01f, -1.98449597e-01f, -5.09721458e-01f, 2.92143017e-01f, -1.80893078e-01f, -1.99534148e-01f, -2.98560500e-01f, -8.27582851e-02f, 5.12001244e-03f, 3.86095829e-02f, 7.33505785e-02f, 2.17164099e-01f, 9.50947925e-02f, -1.27536446e-01f, 5.39598167e-02f, 1.53849840e-01f, 1.78206772e-01f, -3.71897668e-02f, -8.20563585e-02f, 2.64495373e-01f, -2.26643845e-01f, 3.00765340e-03f, -3.61934975e-02f, 1.11853354e-01f, 2.15623900e-03f, 3.78502049e-02f, -3.08294725e-02f, -1.11755401e-01f, -2.32498697e-03f, -1.84832439e-01f, 3.32587361e-01f, 2.82173902e-01f, -6.05375096e-02f, -3.29674520e-02f, -9.01153162e-02f, -9.43597108e-02f, -2.33953342e-01f, 3.18724096e-01f, 1.90470979e-01f, 1.94186419e-02f, -1.64830670e-01f, -8.26445296e-02f, 2.48367801e-01f, 4.09958139e-02f, -1.23517044e-01f, 1.86643079e-01f, 1.32493079e-01f, 2.30602041e-01f, 7.27258548e-02f, 1.63157925e-01f, 5.84417395e-02f, 1.54294163e-01f, 5.26881479e-02f, 2.54358612e-02f, -1.03902750e-01f, 1.60297360e-02f, 9.44197848e-02f, -6.04474992e-02f, -5.33254147e-02f, 9.59054008e-02f, -1.53783515e-01f, 8.40870198e-03f, 3.94808687e-02f, 4.09419872e-02f, 1.42574042e-01f, 1.65716246e-01f, 1.43402874e-01f, 1.44021004e-01f, 1.44754604e-01f, 1.95801686e-02f, -1.33933827e-01f, -5.25778122e-02f, 1.08905084e-01f, -5.75271714e-03f, 3.78882624e-02f, -5.57190692e-03f, -1.96834907e-01f, 1.70381013e-02f },
  { -1.10619754e-01f, 9.00294166e-03f, -1.59600750e-04f, -2.02007398e-01f, -1.51622862e-01f, -3.37828219e-01f, 2.54635274e-01f, 2.02144831e-01f, 2.55389605e-04f, -2.02591687e-01f, -2.47965809e-02f, -3.12125206e-01f, 1.19559892e-01f, -2.61888921e-01f, -1.70780718e-01f, -5.46090044e-02f, 5.46436682e-02f, -1.98480099e-01f, 1.00964338e-01f, -4.64109071e-02f, -2.38395318e-01f, 5.78756770e-03f, 1.62657171e-01f, -5.60253859e-02f, -1.37713358e-01f, -2.48199627e-01f, -2.00287774e-01f, -2.30249420e-01f, 2.57777181e-02f, -4.03620116e-02f, -1.93428248e-01f, -7.48589858e-02f, -5.60400933e-02f, 9.02960822e-02f, 4.76897545e-02f, 3.10694724e-01f, -4.55769092e-01f, 1.83654457e-01f, -5.41844815e-02f, -1.87238470e-01f, 6.36330321e-02f, 1.85244337e-01f, -2.80177116e-01f, -5.88997453e-03f, 1.31662682e-01f, -1.63211927e-01f, -3.20074320e-01f, -5.78060076e-02f, 1.76825315e-01f, -3.40441287e-01f, -2.05361485e-01f, -2.12224722e-01f, -1.12610795e-01f, 1.21897712e-01f, 5.07723317e-02f, 3.07716262e-02f, -1.51389288e-02f, -8.49001780e-02f, 1.10613815e-02f, -3.39194745e-01f, -1.07791066e-01f, -2.19423652e-01f, -5.73315751e-03f, -2.10218117e-01f, -2.62183212e-02f, 2.76707888e-01f, -8.54786411e-02f, 1.13483025e-02f, -2.02929467e-01f, -1.68023720e-01f, 5.68067394e-02f, -3.16203982e-02f, -1.22365067e-02f, -2.08681989e-02f, 7.81798363e-02f, -6.39093220e-02f, -6.93380535e-02f, -3.85783962e-03f, -2.35801086e-01f, 2.46863902e-01f, 1.22025684e-01f, 1.61457196e-01f, -2.06860989e-01f, -9.60466862e-02f, 4.35896814e-02f, 1.81726456e-01f, -1.40346279e-02f, 2.07568929e-01f, -2.50305325e-01f, 1.06185272e-01f, 1.08144887e-01f, 3.23784091e-02f, 2.72183627e-01f, -7.68969581e-02f, 3.08709383e-01f, -1.03665218e-01f, -7.29096085e-02f, 2.45243460e-02f, 1.69164017e-01f, -2.01786503e-01f, 6.27168268e-02f, 1.75651059e-01f, -3.03533413e-02f, -3.57773870e-01f, -1.01368465e-02f, -2.77684867e-01f, 2.31732026e-01f, 1.13369696e-01f, 1.71457395e-01f, -1.16278186e-01f, -2.68401317e-02f, -2.35249281e-01f, 1.37016416e-01f, -4.27702934e-01f, -1.37608536e-02f, -4.52332459e-02f, -1.10360250e-01f, -1.59984708e-01f, 1.89468130e-01f, -4.30126861e-02f, -1.96147293e-01f, 6.79225028e-02f, 1.76257163e-01f, -7.11847022e-02f, 2.33074948e-02f, -1.01504531e-02f, -2.21546069e-01f, -4.94619692e-03f, -1.92980636e-02f, -1.67151183e-01f, -1.66200474e-01f, 1.97671307e-03f, 4.97245826e-02f, 1.37818575e-01f, 1.05512641e-01f, -4.98274341e-02f, 1.16236977e-01f, 6.03565611e-02f, 4.96028513e-02f, 3.23883116e-01f, 2.81298041e-01f, 1.63436934e-01f, 1.70215175e-01f, -3.51540819e-02f, -3.71163450e-02f, -1.01206340e-01f, 4.78525460e-02f, 2.20504906e-02f, 1.59620419e-01f, -2.01636814e-02f, -3.15845281e-01f, -1.89799234e-01f, 1.61917448e-01f, 1.24959819e-01f, -6.70891535e-03f, -3.74654122e-02f, 2.44416129e-02f, -5.61962016e-02f, -1.66101202e-01f, -9.13706869e-02f, -1.50312513e-01f, -1.11027099e-01f, 2.13881303e-02f, -2.41741896e-01f, -8.14380273e-02f, 6.81091398e-02f, -2.21159726e-01f, 1.34525821e-01f, 4.38764840e-02f, -3.17853570e-01f, 1.39342949e-01f, -7.13170022e-02f, 9.23161283e-02f, 1.89207107e-01f, -2.13221703e-02f, -1.17994957e-01f, 1.48659172e-02f, -1.74049497e-01f, -8.30275938e-02f, 5.05460687e-02f, 1.66419476e-01f, 2.96872258e-01f, -2.04985980e-02f, -2.89145322e-03f, 1.55965582e-01f, 2.10060522e-01f, 4.22876254e-02f, 2.95347810e-01f, -1.78603888e-01f, 1.96985170e-01f, 6.89682886e-02f, -3.90592739e-02f, 2.27008220e-02f, 1.52149540e-03f, 2.83670306e-01f, 3.71908173e-02f, 6.29544407e-02f, -1.57910660e-01f, 1.77672371e-01f, -2.55880833e-01f, -8.09816346e-02f, 1.73069358e-01f, 6.66477308e-02f, 1.70185510e-02f, 7.68223330e-02f, 1.38369888e-01f, 1.38823405e-01f, 8.51745382e-02f, 1.84762716e-01f, 3.91520411e-02f, 5.53337447e-02f, 6.41219597e-03f, 1.94431096e-02f, 1.61656532e-02f, 1.66170485e-02f, 2.94464398e-02f, 8.46621320e-02f, -1.05833057e-02f, 3.89481075e-02f, 3.52429114e-02f, 1.35789774e-02f, 1.11668080e-01f, -3.96150304e-03f, 2.73076911e-02f, 1.15253497e-02f, -4.28031646e-02f, -4.32025827e-02f, 1.65185183e-02f, 1.85936298e-02f, -1.30930953e-02f, 2.21055206e-02f, 1.73973255e-02f, 8.19097832e-03f, -1.88173335e-02f, 1.00003127e-02f, 4.99865878e-03f, -7.48172328e-02f, -6.45254925e-02f, 1.10432290e-01f, 7.17877224e-03f, 7.75453970e-02f, 3.91030610e-02f, -3.48296575e-02f, -1.08054869e-01f, 6.55893758e-02f, 4.83492315e-02f, -1.18563510e-02f, -9.66967568e-02f, 9.11526680e-02f, -8.07772428e-02f, 1.70989409e-02f, 1.06606819e-01f, 6.02334216e-02f, -1.08602583e-01f, 5.92689216e-02f, -2.72674914e-02f, 9.60096717e-02f, 2.79961638e-02f, -3.75313386e-02f, 3.84331793e-02f, -3.98560464e-02f, 2.48065703e-02f, 6.63829455e-03f, 4.83074635e-02f, 5.32694720e-02f, 2.55594105e-02f, -9.71986204e-02f, 7.39557901e-03f, -2.73767784e-02f, -1.08704537e-01f, 6.80944771e-02f, 8.69294181e-02f, 6.17669290e-03f, -4.84873168e-02f, 1.31507695e-01f, 1.49331549e-02f, 1.51046747e-02f, 8.51404145e-02f, 6.91797808e-02f, 2.61047818e-02f, 2.85523608e-02f, 7.73120299e-02f, -2.46438314e-03f, -7.37982765e-02f, 3.23462561e-02f, -6.49869964e-02f, 4.52761799e-02f, -9.62759703e-02f, -9.14952084e-02f, 2.51631513e-02f, 8.08597505e-02f, 5.25031947e-02f, -4.55410313e-03f, -6.96613938e-02f, -2.07947642e-01f, -8.81693736e-02f, -1.60388388e-02f, 6.56671301e-02f, -1.17929369e-01f, 4.01242822e-02f, -6.31148145e-02f, -1.18121887e-02f, 1.41311456e-02f, -3.15343261e-01f, -1.23635881e-01f, -2.49369472e-01f, -4.45352681e-03f, 5.31277210e-02f, -8.94219242e-03f, -9.83139649e-02f, 9.01512876e-02f, -2.30258286e-01f, 9.17690918e-02f, -2.24714443e-01f, -5.77939898e-02f, -6.49472326e-02f, -8.36315528e-02f, -1.97587401e-01f, -6.71673641e-02f, -7.44025484e-02f, -9.97161865e-02f, 9.79713649e-02f, 2.10096598e-01f, -2.12987941e-02f, 2.27466803e-02f, -5.09258844e-02f, -6.43619895e-02f, -1.24955907e-01f, -1.41705014e-02f, -2.55612403e-01f, -2.02118188e-01f, -1.74384639e-01f, -6.06523082e-02f, 1.63839445e-01f, 7.82010779e-02f, 2.86373764e-01f, 7.80140832e-02f, 2.03985319e-01f, -1.18629131e-02f, 2.19767615e-01f, -7.94477537e-02f, 1.07057415e-01f, -7.40208924e-02f, 8.74035358e-02f, 2.96406131e-02f, -2.34682098e-01f, -1.38435662e-01f, -9.54137743e-02f, 1.60748884e-01f, -2.53177047e-01f, -1.27587438e-01f, -5.70595972e-02f, -2.05112644e-03f, -3.03400252e-02f, -3.34795415e-02f, 2.94021796e-02f, -2.15031276e-03f, -7.65433442e-03f, -1.68694258e-02f, -1.82799041e-01f, -1.93770215e-01f, -2.25007564e-01f, 1.15619875e-01f, -1.21473432e-01f, -7.89350644e-02f, 4.96192425e-02f, -2.30615526e-01f, -2.90903896e-02f, -1.77011847e-01f, -1.12414069e-01f, 2.14542225e-01f, -6.08348474e-02f, 5.46814315e-02f, -1.25050068e-01f, -2.01967526e-02f, -8.12630802e-02f, -5.86724840e-02f, -2.43213877e-01f, -1.73084363e-01f, 6.27808422e-02f, 2.03408018e-01f, -9.33538228e-02f, -6.66120425e-02f, -4.15521041e-02f, 2.21457873e-02f, 4.69035804e-02f, -2.05488920e-01f, 1.80794001e-02f, -3.39278162e-01f, -8.43474641e-02f, 2.04876903e-02f, -4.00382392e-02f, 1.69712901e-01f, 6.48809448e-02f, 1.56213559e-04f, -1.93798944e-01f, -1.70222688e-02f, -3.15022133e-02f, 2.61149555e-01f, -1.73943624e-01f },
  { -1.35348856e-01f, -2.06514210e-01f, -3.05693209e-01f, 5.35238720e-02f, 2.45637476e-01f, -2.58685797e-01f, 3.03857446e-01f, 1.40020639e-01f, 9.46108904e-03f, -1.53135821e-01f, 1.05826236e-01f, -1.99589893e-01f, 3.75915691e-02f, -1.62059531e-01f, -1.70445237e-02f, -1.22721128e-01f, 1.28886271e-02f, -1.81660995e-01f, -1.19497515e-01f, -3.58076781e-01f, -7.89167136e-02f, 7.43505508e-02f, -6.89863339e-02f, -1.71610594e-01f, 3.31486195e-01f, 2.60648429e-01f, -5.83761111e-02f, -2.71070749e-01f, -1.33729398e-01f, -1.29670128e-01f, 3.21317837e-02f, 1.78126786e-02f, 2.23039240e-01f, 2.16671512e-01f, 1.04998440e-01f, 1.98135108e-01f, 1.50254831e-01f, -4.47577797e-02f, -3.71745899e-02f, -3.78699511e-01f, -8.26914608e-02f, 6.56010136e-02f, -8.51941258e-02f, 2.10175738e-01f, 1.97993480e-02f, -4.63461876e-01f, 2.95485072e-02f, -1.74989730e-01f, 2.77217440e-02f, -8.14421400e-02f, -7.84552544e-02f, -7.40329847e-02f, 6.44494370e-02f, -3.69444489e-02f, 1.26816146e-02f, 5.07377274e-02f, 1.13450646e-01f, 2.17518751e-02f, 2.66539574e-01f, 4.59118821e-02f, -4.17409949e-02f, -1.63973361e-01f, -2.61252910e-01f, -3.05524141e-01f, -1.46177322e-01f, 1.29734844e-01f, -1.38763726e-01f, -1.66389123e-01f, -2.31405064e-01f, 2.20370010e-01f, 4.75779176e-01f, -3.26411933e-01f, -1.33596689e-01f, -3.85168940e-02f, 4.74256575e-02f, 1.78683419e-02f, -5.18304594e-02f, -1.10683322e-01f, -2.64172435e-01f, 1.06046498e-01f, 2.14773342e-01f, -2.41500568e-02f, -8.02593082e-02f, 3.58210057e-02f, -2.33609393e-01f, 3.09280425e-01f, -2.37279072e-01f, 3.44271841e-03f, -5.26007563e-02f, 1.98654970e-03f, -5.74455485e-02f, 1.38966843e-01f, -2.51474492e-02f, 7.44723678e-02f, 1.46306260e-02f, -7.15645999e-02f, 5.86430840e-02f, 7.94452950e-02f, 1.45498708e-01f, 9.96113718e-02f, -1.59628130e-02f, 9.79075357e-02f, -1.41433313e-01f, 1.48177162e-01f, 4.77723405e-02f, -2.29635626e-01f, 2.00446621e-01f, 9.56357047e-02f, 2.54997551e-01f, -2.02681497e-01f, 4.50725853e-03f, -2.69704964e-02f, 6.08330406e-02f, -1.89088881e-01f, -1.84138134e-01f, 5.81998713e-02f, -4.02682684e-02f, -1.46612257e-01f, -2.00851992e-01f, -3.59451056e-01f, -9.33075920e-02f, -1.39787644e-01f, 1.00856079e-02f, -1.58439949e-01f, 3.66601273e-02f, 1.75724477e-01f, 1.02864308e-02f, -7.19847009e-02f, -3.23685348e-01f, -1.36166066e-01f, -1.24698132e-01f, 1.57422319e-01f, 2.38448694e-01f, 1.78479746e-01f, 4.97956574e-03f, -2.47010905e-02f, -1.09504171e-01f, -6.43009096e-02f, 1.20920442e-01f, 2.17387751e-01f, 3.31638977e-02f, 9.26684588e-02f, 1.09920084e-01f, 1.04707748e-01f, -8.13653022e-02f, -2.29068950e-01f, 1.63313419e-01f, 8.35229550e-03f, -8.55406672e-02f, 1.99971870e-02f, -4.49643517e-03f, 1.20726824e-02f, -6.73402771e-02f, 1.94853153e-02f, -7.46668205e-02f, -1.20241918e-01f, 2.53927737e-01f, -9.40775573e-02f, 1.59608319e-01f, 2.33738720e-01f, -8.40361696e-03f, -2.37734586e-01f, -1.85785949e-01f, -2.84947753e-01f, -2.64885038e-01f, 4.91374247e-02f, -3.28104466e-01f, -3.46815735e-02f, 4.92111333e-02f, 1.68042019e-01f, 4.40246820e-01f, -3.59777302e-01f, 6.91815615e-02f, 5.08009382e-02f, -2.09813327e-01f, -2.35772151e-02f, 4.91439961e-02f, 4.51651998e-02f, -4.27627057e-01f, 1.65834233e-01f, 1.55410081e-01f, -7.75919333e-02f, 2.82264538e-02f, -2.14238256e-01f, -1.33640558e-01f, 9.86139476e-02f, -1.43514395e-01f, -2.51416862e-01f, -7.14953691e-02f, -1.34287238e-01f, 6.35728762e-02f, 1.39235765e-01f, -2.51341373e-01f, 3.34156491e-02f, 2.53351703e-02f, -3.61596942e-02f, 4.84930687e-02f, 4.94963489e-02f, -8.20343047e-02f, 8.57638493e-02f, -1.55946091e-02f, -6.12145709e-03f, -1.08049236e-01f, -3.60728726e-02f, 2.29547862e-02f, 1.66287750e-01f, 5.91991208e-02f, 2.60430984e-02f, 1.35522395e-01f, -1.10357918e-01f, -1.99364070e-02f, 4.04797448e-03f, -4.27798368e-02f, 7.66375277e-04f, -3.01819434e-03f, -4.52248380e-03f, -2.36324240e-02f, -3.65427546e-02f, 7.22412914e-02f, 7.42156431e-02f, -4.77508828e-02f, 3.04203276e-02f, -7.08256802e-03f, -1.16739847e-01f, -2.49902606e-02f, 1.00752592e-01f, 1.33895483e-02f, 7.33240228e-03f, -3.96862477e-02f, 2.44763354e-03f, 2.63301991e-02f, -2.35888157e-02f, -9.42670852e-02f, -8.67168419e-03f, 1.27068991e-02f, -2.10432503e-02f, -5.59922457e-02f, -1.53245935e-02f, -7.92232379e-02f, -3.11462097e-02f, -4.43117460e-03f, 2.70636827e-02f, -1.78576723e-01f, -1.13293633e-01f, 9.76256747e-03f, -5.57255838e-03f, 5.00494279e-02f, -8.58294815e-02f, 1.09225862e-01f, 3.39980461e-02f, 3.35218199e-02f, -2.17684377e-02f, 1.53024476e-02f, 3.81711824e-03f, -4.04275991e-02f, 6.82750195e-02f, 6.35469332e-02f, -2.48894189e-02f, 3.37511115e-03f, -1.21582150e-02f, -2.37577464e-02f, -1.31052723e-02f, -3.46111134e-02f, -1.86442174e-02f, 2.47778669e-02f, 1.78756669e-01f, 1.11379869e-01f, 3.51204127e-02f, -8.82394537e-02f, -4.50937599e-02f, -8.25158581e-02f, 3.67424116e-02f, 3.23319472e-02f, 2.73482334e-02f, 2.43715364e-02f, -2.81272791e-02f, 7.10079074e-02f, 6.12174608e-02f, -2.78951861e-02f, -3.18903266e-03f, 1.26503229e-01f, 6.64882958e-02f, 2.78388225e-02f, 1.37967855e-01f, -3.41370814e-02f, -7.77060986e-02f, 3.22829857e-02f, 8.75256781e-04f, 5.27398810e-02f, -1.56898890e-02f, 3.06662428e-03f, 1.11214973e-01f, 7.53906667e-02f, -1.76120475e-01f, -8.61948505e-02f, 2.42778342e-02f, 6.40224218e-02f, 2.62985200e-01f, 9.50787663e-02f, -1.23146446e-02f, -1.98970497e-01f, -5.40833734e-02f, -4.56212670e-01f, 6.77065700e-02f, 2.59692401e-01f, 5.94393723e-02f, 1.19582660e-01f, 9.00569633e-02f, 2.57161528e-01f, 2.13479716e-02f, -3.53030004e-02f, -4.96145859e-02f, 1.31093711e-01f, -5.00761829e-02f, -9.15154442e-02f, 6.07774965e-02f, 3.65687124e-02f, -1.82106614e-01f, 1.52016077e-02f, -2.36779615e-01f, -4.89465743e-02f, 2.06755311e-03f, 2.67433990e-02f, 1.16508909e-01f, 6.44449890e-02f, 2.15345562e-01f, 9.36476067e-02f, -7.71448836e-02f, -2.10557148e-01f, -6.42829761e-02f, 2.12417580e-02f, 2.14605272e-01f, 1.86137185e-01f, 1.28746018e-01f, 8.98308605e-02f, -7.36148953e-02f, 4.20903526e-02f, 1.28490001e-01f, 2.19897717e-01f, -2.17963774e-02f, -1.61642369e-04f, -2.16074325e-02f, -1.11670364e-02f, 1.26567399e-02f, -5.66373244e-02f, -3.62228781e-01f, 8.55742916e-02f, 2.40399484e-02f, 5.87786213e-02f, -3.15456130e-02f, -1.25022635e-01f, -1.64684385e-01f, 1.41860396e-01f, 4.20513898e-02f, -5.83092608e-02f, -3.85391265e-02f, 1.29393995e-01f, -7.24984035e-02f, 1.06665738e-01f, 1.78205594e-01f, -1.34328753e-01f, -2.33036384e-01f, -2.47109532e-01f, -1.00323353e-02f, -2.29084402e-01f, -1.28232732e-01f, -2.10688740e-01f, -3.94192152e-02f, -4.97523472e-02f, 1.02174759e-01f, 2.60712802e-01f, -1.50269717e-01f, 6.20703120e-03f, -1.13540385e-02f, -8.16633552e-02f, -1.25813425e-01f, -1.55123368e-01f, -1.40671775e-01f, -3.99129212e-01f, 1.04699358e-02f, 4.20217998e-02f, -1.42252713e-01f, -1.16199955e-01f, 7.57078920e-03f, 1.57625750e-01f, 2.58622020e-01f, -4.46094200e-02f, 5.71428910e-02f, -8.64537880e-02f, -1.47637308e-01f, -7.84920603e-02f, 7.38189463e-03f, -1.11093871e-01f, 1.05136909e-01f, -1.27630644e-02f, 5.23841381e-02f, -2.24684775e-02f, 1.34112567e-01f, 3.12934034e-02f, -4.89751138e-02f },
